{"learner":{"attributes":{"scikit_learn":"{\"_estimator_type\": \"regressor\"}"},"feature_names":["Banned Objects","Number of Faces Detected","Mouth Open","Head Pose","Eye Tracking","Spoof Face Detected"],"feature_types":["int","int","int","int","int","i"],"gradient_booster":{"model":{"gbtree_model_param":{"num_parallel_tree":"1","num_trees":"100"},"iteration_indptr":[0,1,2,3,4,5,6,7,8,9,10,11,12,13,14,15,16,17,18,19,20,21,22,23,24,25,26,27,28,29,30,31,32,33,34,35,36,37,38,39,40,41,42,43,44,45,46,47,48,49,50,51,52,53,54,55,56,57,58,59,60,61,62,63,64,65,66,67,68,69,70,71,72,73,74,75,76,77,78,79,80,81,82,83,84,85,86,87,88,89,90,91,92,93,94,95,96,97,98,99,100],"tree_info":[0,0,0,0,0,0,0,0,0,0,0,0,0,0,0,0,0,0,0,0,0,0,0,0,0,0,0,0,0,0,0,0,0,0,0,0,0,0,0,0,0,0,0,0,0,0,0,0,0,0,0,0,0,0,0,0,0,0,0,0,0,0,0,0,0,0,0,0,0,0,0,0,0,0,0,0,0,0,0,0,0,0,0,0,0,0,0,0,0,0,0,0,0,0,0,0,0,0,0,0],"trees":[{"base_weights":[2.2060688E-1,-8.073395E-1,1.5245175E0,-2.0259942E-1,-1.7863697E0,1.0868502E-1,7.737003E-1,2.4036694E-1,-8.46789E-1,-2.6159894E0,-8.37156E-1,1.955439E0,-2.3139657E-1,5.8142196E-2,-3.56078E-2,-1.0194955E-1,-2.2280489E-3,-6.444954E-2,-1.6444956E-1,-8.541285E-2,2.3050457E-2,2.0489296E-2,1.24587156E-1,1.4587156E-2,-3.5412844E-2],"categories":[],"categories_nodes":[],"categories_segments":[],"categories_sizes":[],"default_left":[0,0,0,0,0,0,0,0,0,0,0,0,0,0,0,0,0,0,0,0,0,0,0,0,0],"id":0,"left_children":[1,3,5,7,9,-1,11,13,15,17,19,21,23,-1,-1,-1,-1,-1,-1,-1,-1,-1,-1,-1,-1],"loss_changes":[8.835357E1,2.1544252E1,1.2453316E1,7.0520434E0,8.83482E0,0E0,1.826891E1,1.4008335E1,9.473317E0,2.012024E0,9.834185E0,4.7815E0,2.45181E0,0E0,0E0,0E0,0E0,0E0,0E0,0E0,0E0,0E0,0E0,0E0,0E0],"parents":[2147483647,0,0,1,1,2,2,3,3,4,4,6,6,7,7,8,8,9,9,10,10,11,11,12,12],"right_children":[2,4,6,8,10,-1,12,14,16,18,20,22,24,-1,-1,-1,-1,-1,-1,-1,-1,-1,-1,-1,-1],"split_conditions":[1E0,1E0,1E0,1E0,1E0,1.0868502E-1,1E0,1E0,1E0,1E0,1E0,1E0,1E0,5.8142196E-2,-3.56078E-2,-1.0194955E-1,-2.2280489E-3,-6.444954E-2,-1.6444956E-1,-8.541285E-2,2.3050457E-2,2.0489296E-2,1.24587156E-1,1.4587156E-2,-3.5412844E-2],"split_indices":[0,2,4,3,4,0,3,4,4,3,3,2,2,0,0,0,0,0,0,0,0,0,0,0,0],"split_type":[0,0,0,0,0,0,0,0,0,0,0,0,0,0,0,0,0,0,0,0,0,0,0,0,0],"sum_hessian":[6.4E1,3.6E1,2.8E1,2.3E1,1.3E1,1.4E1,1.4E1,1.4E1,9E0,6E0,7E0,6E0,8E0,7E0,7E0,3E0,6E0,3E0,3E0,4E0,3E0,2E0,4E0,4E0,4E0],"tree_param":{"num_deleted":"0","num_feature":"6","num_nodes":"25","size_leaf_vector":"1"}},{"base_weights":[7.615627E-2,-1.0926553E0,1.9432085E0,-2.3557906E0,5.82054E-1,1.20277666E-1,6.600315E-1,8.891342E-2,-1.3122664E-1,6.689029E-2,-2.0497626E-2,-6.7000467E-1,1.0787845E-1,2.3701837E-2,-3.5437312E-2,-8.6770646E-2,8.979072E-2],"categories":[],"categories_nodes":[],"categories_segments":[],"categories_sizes":[],"default_left":[0,0,0,0,0,0,0,0,0,0,0,0,0,0,0,0,0],"id":1,"left_children":[1,3,5,7,9,-1,11,-1,-1,-1,13,15,-1,-1,-1,-1,-1],"loss_changes":[1.4178612E2,8.598658E1,1.3244019E1,3.0220024E1,8.224253E0,0E0,1.7379812E1,0E0,0E0,0E0,4.079961E0,1.6251999E1,0E0,0E0,0E0,0E0,0E0],"parents":[2147483647,0,0,1,1,2,2,3,3,4,4,6,6,10,10,11,11],"right_children":[2,4,6,8,10,-1,12,-1,-1,-1,14,16,-1,-1,-1,-1,-1],"split_conditions":[2E0,1E0,1E0,1E0,1E0,1.20277666E-1,1E0,8.891342E-2,-1.3122664E-1,6.689029E-2,1E0,1E0,1.0787845E-1,2.3701837E-2,-3.5437312E-2,-8.6770646E-2,8.979072E-2],"split_indices":[1,0,2,1,3,0,0,0,0,0,2,3,0,0,0,0,0],"split_type":[0,0,0,0,0,0,0,0,0,0,0,0,0,0,0,0,0],"sum_hessian":[6.3E1,3.9E1,2.4E1,2.2E1,1.7E1,1.7E1,7E0,1E0,2.1E1,7E0,1E1,4E0,3E0,6E0,4E0,3E0,1E0],"tree_param":{"num_deleted":"0","num_feature":"6","num_nodes":"17","size_leaf_vector":"1"}},{"base_weights":[2.7012724E-1,-9.018629E-1,1.0850163E-1,-2.0037725E0,9.6609765E-1,8.669058E-2,-2.2064166E0,8.850064E-2,2.2635575E-1,-7.281987E-2,-1.5112872E-1,4.3472506E-2,-8.673164E-3],"categories":[],"categories_nodes":[],"categories_segments":[],"categories_sizes":[],"default_left":[0,0,0,0,0,0,0,0,0,0,0,0,0],"id":2,"left_children":[1,3,-1,5,7,-1,9,-1,11,-1,-1,-1,-1],"loss_changes":[1.5782397E2,9.2502075E1,0E0,2.5032715E1,9.709072E0,0E0,1.2125549E1,0E0,2.7220314E0,0E0,0E0,0E0,0E0],"parents":[2147483647,0,0,1,1,3,3,4,4,6,6,8,8],"right_children":[2,4,-1,6,8,-1,10,-1,12,-1,-1,-1,-1],"split_conditions":[2E0,1E0,1.0850163E-1,1E0,1E0,8.669058E-2,1E0,8.850064E-2,1E0,-7.281987E-2,-1.5112872E-1,4.3472506E-2,-8.673164E-3],"split_indices":[1,0,0,1,4,0,4,0,3,0,0,0,0],"split_type":[0,0,0,0,0,0,0,0,0,0,0,0,0],"sum_hessian":[6.9E1,4.3E1,2.6E1,2.7E1,1.6E1,1E0,2.6E1,7E0,9E0,1.5E1,1.1E1,3E0,6E0],"tree_param":{"num_deleted":"0","num_feature":"6","num_nodes":"13","size_leaf_vector":"1"}},{"base_weights":[3.086544E-1,-5.006744E-1,1.3429931E0,-2.053503E-1,-7.3296916E-1,1.6581026E0,4.9297784E-2,5.312657E-1,-5.41421E-2,-9.084571E-1,-3.7854692E-1,1.0462692E0,9.748697E-2,4.83602E-2,-9.265051E-3,-1.3784555E-2,-8.530983E-2,-8.548283E-2,2.8597532E-2,-1.2614751E-2,1.0416331E-1],"categories":[],"categories_nodes":[],"categories_segments":[],"categories_sizes":[],"default_left":[0,0,0,0,0,0,0,0,0,0,0,0,0,0,0,0,0,0,0,0,0],"id":3,"left_children":[1,3,5,7,9,11,-1,13,-1,15,17,19,-1,-1,-1,-1,-1,-1,-1,-1,-1],"loss_changes":[5.927081E1,2.5935736E0,1.8528671E0,1.285639E1,1.0244379E0,6.365433E-1,0E0,3.6153915E0,0E0,6.596571E0,1.2364786E1,9.951849E0,0E0,0E0,0E0,0E0,0E0,0E0,0E0,0E0,0E0],"parents":[2147483647,0,0,1,1,2,2,3,3,4,4,5,5,7,7,9,9,10,10,11,11],"right_children":[2,4,6,8,10,12,-1,14,-1,16,18,20,-1,-1,-1,-1,-1,-1,-1,-1,-1],"split_conditions":[1E0,1E0,1E0,1E0,1E0,1E0,4.9297784E-2,1E0,-5.41421E-2,1E0,1E0,1E0,9.748697E-2,4.83602E-2,-9.265051E-3,-1.3784555E-2,-8.530983E-2,-8.548283E-2,2.8597532E-2,-1.2614751E-2,1.0416331E-1],"split_indices":[0,4,5,3,3,3,0,5,0,5,5,4,0,0,0,0,0,0,0,0,0],"split_type":[0,0,0,0,0,0,0,0,0,0,0,0,0,0,0,0,0,0,0,0,0],"sum_hessian":[6.9E1,3.9E1,3E1,1.8E1,2.1E1,1.4E1,1.6E1,1E1,8E0,1.3E1,8E0,6E0,8E0,6E0,4E0,8E0,5E0,3E0,5E0,3E0,3E0],"tree_param":{"num_deleted":"0","num_feature":"6","num_nodes":"21","size_leaf_vector":"1"}},{"base_weights":[-3.0793836E-2,-1.2364362E0,9.126125E-2,-2.2123868E0,5.3764045E-1,8.3314314E-2,-1.21709265E-1,7.0815283E-1,3.4528193E-1,1.1713791E-2,5.0249584E-2,2.8905828E-2,2.1695471E-3],"categories":[],"categories_nodes":[],"categories_segments":[],"categories_sizes":[],"default_left":[0,0,0,0,0,0,0,0,0,0,0,0,0],"id":4,"left_children":[1,3,-1,5,7,-1,-1,9,11,-1,-1,-1,-1],"loss_changes":[1.4770695E2,7.044591E1,0E0,2.6423424E1,2.4748039E-1,0E0,0E0,7.4921036E-1,6.0753095E-1,0E0,0E0,0E0,0E0],"parents":[2147483647,0,0,1,1,3,3,4,4,7,7,8,8],"right_children":[2,4,-1,6,8,-1,-1,10,12,-1,-1,-1,-1],"split_conditions":[2E0,1E0,9.126125E-2,1E0,1E0,8.3314314E-2,-1.21709265E-1,1E0,1E0,1.1713791E-2,5.0249584E-2,2.8905828E-2,2.1695471E-3],"split_indices":[1,0,0,1,4,0,0,2,2,0,0,0,0],"split_type":[0,0,0,0,0,0,0,0,0,0,0,0,0],"sum_hessian":[6.4E1,3.9E1,2.5E1,2.5E1,1.4E1,1E0,2.4E1,6E0,8E0,3E0,3E0,4E0,4E0],"tree_param":{"num_deleted":"0","num_feature":"6","num_nodes":"13","size_leaf_vector":"1"}},{"base_weights":[-3.398591E-1,-1.3134701E0,1.115115E0,-3.7678188E-1,-2.062725E0,9.61209E-2,3.4111154E-1,3.2275113E-1,-1.1899021E0,-1.5362287E-1,-5.4380053E-1,-5.6283516E-1,1.2024193E0,2.8331427E-2,-4.1613723E-3,-2.9200366E-2,-1.1035112E-1,-5.1653828E-3,-5.893565E-2,-6.3499175E-2,5.7725287E-3,1.2040732E-1,-3.0267227E-2],"categories":[],"categories_nodes":[],"categories_segments":[],"categories_sizes":[],"default_left":[0,0,0,0,0,0,0,0,0,0,0,0,0,0,0,0,0,0,0,0,0,0,0],"id":5,"left_children":[1,3,5,7,9,-1,11,13,15,-1,17,19,21,-1,-1,-1,-1,-1,-1,-1,-1,-1,-1],"loss_changes":[9.4958885E1,2.7295525E1,1.6215336E1,1.1191325E1,3.2070763E1,0E0,1.2355408E1,1.136258E0,4.257492E0,0E0,2.6749742E0,3.9838095E0,1.8895119E1,0E0,0E0,0E0,0E0,0E0,0E0,0E0,0E0,0E0,0E0],"parents":[2147483647,0,0,1,1,2,2,3,3,4,4,6,6,7,7,8,8,10,10,11,11,12,12],"right_children":[2,4,6,8,10,-1,12,14,16,-1,18,20,22,-1,-1,-1,-1,-1,-1,-1,-1,-1,-1],"split_conditions":[1E0,1E0,1E0,1E0,1E0,9.61209E-2,1E0,1E0,1E0,-1.5362287E-1,1E0,1E0,1E0,2.8331427E-2,-4.1613723E-3,-2.9200366E-2,-1.1035112E-1,-5.1653828E-3,-5.893565E-2,-6.3499175E-2,5.7725287E-3,1.2040732E-1,-3.0267227E-2],"split_indices":[0,3,5,2,5,0,2,5,5,0,2,3,3,0,0,0,0,0,0,0,0,0,0],"split_type":[0,0,0,0,0,0,0,0,0,0,0,0,0,0,0,0,0,0,0,0,0,0,0],"sum_hessian":[6.5E1,3.9E1,2.6E1,1.8E1,2.1E1,1.2E1,1.4E1,1E1,8E0,1.2E1,9E0,7E0,7E0,6E0,4E0,6E0,2E0,6E0,3E0,3E0,4E0,4E0,3E0],"tree_param":{"num_deleted":"0","num_feature":"6","num_nodes":"23","size_leaf_vector":"1"}},{"base_weights":[-2.5647196E-1,-1.1867417E0,1.6580104E0,-2.2518234E0,8.844578E-1,1.08107984E-1,1.057706E0,8.052317E-2,-2.440539E0,1.3473178E0,-1.115284E-1,7.4337795E-2,3.8086352E-1,-1.7124477E-1,-6.4674005E-2,4.730631E-2,9.064358E-2,7.472899E-2,-6.4411364E-2,4.244782E-2,-3.271103E-3],"categories":[],"categories_nodes":[],"categories_segments":[],"categories_sizes":[],"default_left":[0,0,0,0,0,0,0,0,0,0,0,0,0,0,0,0,0,0,0,0,0],"id":6,"left_children":[1,3,5,7,9,-1,11,-1,13,15,17,-1,19,-1,-1,-1,-1,-1,-1,-1,-1],"loss_changes":[1.19512634E2,1.012615E2,4.371212E0,2.5796585E1,7.5262985E0,0E0,2.918539E0,0E0,2.8314316E1,3.3933258E-1,1.3264792E1,0E0,1.3089592E0,0E0,0E0,0E0,0E0,0E0,0E0,0E0,0E0],"parents":[2147483647,0,0,1,1,2,2,3,3,4,4,6,6,8,8,9,9,10,10,12,12],"right_children":[2,4,6,8,10,-1,12,-1,14,16,18,-1,20,-1,-1,-1,-1,-1,-1,-1,-1],"split_conditions":[2E0,1E0,1E0,1E0,1E0,1.08107984E-1,1E0,8.052317E-2,1E0,1E0,1E0,7.4337795E-2,1E0,-1.7124477E-1,-6.4674005E-2,4.730631E-2,9.064358E-2,7.472899E-2,-6.4411364E-2,4.244782E-2,-3.271103E-3],"split_indices":[1,0,4,1,5,0,5,0,5,4,4,0,0,0,0,0,0,0,0,0,0],"split_type":[0,0,0,0,0,0,0,0,0,0,0,0,0,0,0,0,0,0,0,0,0],"sum_hessian":[6.5E1,4.4E1,2.1E1,2.9E1,1.5E1,1E1,1.1E1,1E0,2.8E1,1E1,5E0,6E0,5E0,1.4E1,1.4E1,7E0,3E0,2E0,3E0,2E0,3E0],"tree_param":{"num_deleted":"0","num_feature":"6","num_nodes":"21","size_leaf_vector":"1"}},{"base_weights":[-1.565783E-1,-1.3012248E0,1.8530772E0,-4.376194E-1,-1.9306948E0,9.9188155E-1,2.3036692E0,4.3275225E-1,-5.5497903E-2,-1.4176716E0,-1.2040579E-1,7.79156E-2,-2.4734211E-1,7.137849E-2,1.3645582E-1,4.4281527E-2,-1.7737662E-2,-3.365193E-2,-9.460082E-2,3.59717E-2,-4.047061E-2],"categories":[],"categories_nodes":[],"categories_segments":[],"categories_sizes":[],"default_left":[0,0,0,0,0,0,0,0,0,0,0,0,0,0,0,0,0,0,0,0,0],"id":7,"left_children":[1,3,5,7,9,11,13,15,-1,17,-1,-1,19,-1,-1,-1,-1,-1,-1,-1,-1],"loss_changes":[1.5193373E2,2.1986862E1,7.0281754E0,1.1598843E1,2.464363E0,7.4047766E0,1.6950073E0,3.5239773E0,0E0,3.6715775E0,0E0,0E0,2.7559023E0,0E0,0E0,0E0,0E0,0E0,0E0,0E0,0E0],"parents":[2147483647,0,0,1,1,2,2,3,3,4,4,5,5,6,6,7,7,9,9,12,12],"right_children":[2,4,6,8,10,12,14,16,-1,18,-1,-1,20,-1,-1,-1,-1,-1,-1,-1,-1],"split_conditions":[2E0,1E0,1E0,1E0,1E0,1E0,1E0,1E0,-5.5497903E-2,1E0,-1.2040579E-1,7.79156E-2,1E0,7.137849E-2,1.3645582E-1,4.4281527E-2,-1.7737662E-2,-3.365193E-2,-9.460082E-2,3.59717E-2,-4.047061E-2],"split_indices":[1,3,3,2,4,2,4,4,0,2,0,0,4,0,0,0,0,0,0,0,0],"split_type":[0,0,0,0,0,0,0,0,0,0,0,0,0,0,0,0,0,0,0,0,0],"sum_hessian":[6.4E1,4.1E1,2.3E1,1.8E1,2.3E1,9E0,1.4E1,8E0,1E1,1.3E1,1E1,6E0,3E0,6E0,8E0,5E0,3E0,6E0,7E0,1E0,2E0],"tree_param":{"num_deleted":"0","num_feature":"6","num_nodes":"21","size_leaf_vector":"1"}},{"base_weights":[3.2296923E-1,-5.662328E-1,1.6260694E0,-1.4709406E0,4.704555E-1,1.0806725E-1,9.657116E-1,1.0470604E-1,-1.9833987E0,4.695246E-2,8.045627E-1,5.907056E-1,1.2027588E0,-1.3757734E-1,-3.3963498E-2,-6.5923254E-3,2.242496E-2,8.630418E-2,-4.873256E-3,-1.054122E-2,8.648436E-2,9.942544E-2,2.453785E-2],"categories":[],"categories_nodes":[],"categories_segments":[],"categories_sizes":[],"default_left":[0,0,0,0,0,0,0,0,0,0,0,0,0,0,0,0,0,0,0,0,0,0,0],"id":8,"left_children":[1,3,5,7,9,-1,11,-1,13,15,17,19,21,-1,-1,-1,-1,-1,-1,-1,-1,-1,-1],"loss_changes":[7.1602615E1,3.539431E1,6.7495956E0,4.0692364E1,2.509141E0,0E0,4.451475E-1,0E0,1.6162712E1,7.052983E-1,8.480606E0,6.7551546E0,2.9403143E0,0E0,0E0,0E0,0E0,0E0,0E0,0E0,0E0,0E0,0E0],"parents":[2147483647,0,0,1,1,2,2,3,3,4,4,6,6,8,8,9,9,10,10,11,11,12,12],"right_children":[2,4,6,8,10,-1,12,-1,14,16,18,20,22,-1,-1,-1,-1,-1,-1,-1,-1,-1,-1],"split_conditions":[2E0,1E0,1E0,1E0,1E0,1.0806725E-1,1E0,1.0470604E-1,1E0,1E0,1E0,1E0,1E0,-1.3757734E-1,-3.3963498E-2,-6.5923254E-3,2.242496E-2,8.630418E-2,-4.873256E-3,-1.054122E-2,8.648436E-2,9.942544E-2,2.453785E-2],"split_indices":[1,0,5,1,4,0,0,0,5,5,5,4,4,0,0,0,0,0,0,0,0,0,0],"split_type":[0,0,0,0,0,0,0,0,0,0,0,0,0,0,0,0,0,0,0,0,0,0,0],"sum_hessian":[6E1,3.6E1,2.4E1,1.9E1,1.7E1,1.2E1,1.2E1,2E0,1.7E1,8E0,9E0,6E0,6E0,1E1,7E0,6E0,2E0,4E0,5E0,4E0,2E0,2E0,4E0],"tree_param":{"num_deleted":"0","num_feature":"6","num_nodes":"23","size_leaf_vector":"1"}},{"base_weights":[-5.7005312E-2,-1.2101135E0,9.1624506E-2,1.01215854E-1,-1.4599128E0,-1.083046E0,-8.5021846E-2,-2.7397765E-2,-7.7482104E-2],"categories":[],"categories_nodes":[],"categories_segments":[],"categories_sizes":[],"default_left":[0,0,0,0,0,0,0,0,0],"id":9,"left_children":[1,3,-1,-1,5,7,-1,-1,-1],"loss_changes":[1.2640869E2,3.2041847E1,0E0,0E0,1.2402878E0,3.145605E0,0E0,0E0,0E0],"parents":[2147483647,0,0,1,1,4,4,5,5],"right_children":[2,4,-1,-1,6,8,-1,-1,-1],"split_conditions":[2E0,1E0,9.1624506E-2,1.01215854E-1,1E0,1E0,-8.5021846E-2,-2.7397765E-2,-7.7482104E-2],"split_indices":[1,1,0,0,2,3,0,0,0],"split_type":[0,0,0,0,0,0,0,0,0],"sum_hessian":[5.6E1,3.5E1,2.1E1,2E0,3.3E1,1.5E1,1.8E1,8E0,7E0],"tree_param":{"num_deleted":"0","num_feature":"6","num_nodes":"9","size_leaf_vector":"1"}},{"base_weights":[-2.9260162E-1,-1.137209E0,1.2454426E0,-1.8881928E0,6.8882465E-2,7.8130597E-1,1.7218266E0,9.7841986E-2,-2.2454855E0,1.5798755E-1,-2.7110863E-2,5.7397753E-2,1.9828483E-1,1.0381033E-1,4.0522646E-2,-1.4086781E-1,-8.000826E-2,-2.4666747E-2,6.291525E-2,5.5800486E-2,-2.261961E-2,-4.201588E-2,5.9365805E-2],"categories":[],"categories_nodes":[],"categories_segments":[],"categories_sizes":[],"default_left":[0,0,0,0,0,0,0,0,0,0,0,0,0,0,0,0,0,0,0,0,0,0,0],"id":10,"left_children":[1,3,5,7,9,11,13,-1,15,17,19,-1,21,-1,-1,-1,-1,-1,-1,-1,-1,-1,-1],"loss_changes":[9.494747E1,4.2700554E1,4.403515E0,4.423432E1,1.6679956E-1,2.9788408E0,2.1930046E0,0E0,5.4558563E0,7.78738E0,5.366353E0,0E0,8.188194E0,0E0,0E0,0E0,0E0,0E0,0E0,0E0,0E0,0E0,0E0],"parents":[2147483647,0,0,1,1,2,2,3,3,4,4,5,5,6,6,8,8,9,9,10,10,12,12],"right_children":[2,4,6,8,10,12,14,-1,16,18,20,-1,22,-1,-1,-1,-1,-1,-1,-1,-1,-1,-1],"split_conditions":[2E0,1E0,1E0,1E0,1E0,1E0,1E0,9.7841986E-2,1E0,1E0,1E0,5.7397753E-2,1E0,1.0381033E-1,4.0522646E-2,-1.4086781E-1,-8.000826E-2,-2.4666747E-2,6.291525E-2,5.5800486E-2,-2.261961E-2,-4.201588E-2,5.9365805E-2],"split_indices":[1,0,0,1,5,5,4,0,5,4,4,0,4,0,0,0,0,0,0,0,0,0,0],"split_type":[0,0,0,0,0,0,0,0,0,0,0,0,0,0,0,0,0,0,0,0,0,0,0],"sum_hessian":[7.1E1,4.6E1,2.5E1,2.8E1,1.8E1,1.4E1,1.1E1,2E0,2.6E1,9E0,9E0,8E0,6E0,7E0,4E0,1.2E1,1.4E1,6E0,3E0,2E0,7E0,3E0,3E0],"tree_param":{"num_deleted":"0","num_feature":"6","num_nodes":"23","size_leaf_vector":"1"}},{"base_weights":[2.8847557E-1,-3.9079335E-2,8.6332494E-1,1.8447506E-1,-3.0539066E-1,1.2949078E0,5.1804805E-1,7.171966E-1,-7.830826E-1,-1.1737468E0,3.4017008E-2,8.13168E-1,9.071128E-2,9.895004E-1,3.1772658E-1,4.640184E-2,2.2504725E-2,-7.388074E-3,-1.00223556E-1,-8.178518E-2,2.180177E-3,1.5723562E-2,6.8663664E-2,2.16911E-2,6.6413395E-2,4.3865222E-2,-3.5862715E-3],"categories":[],"categories_nodes":[],"categories_segments":[],"categories_sizes":[],"default_left":[0,0,0,0,0,0,0,0,0,0,0,0,0,0,0,0,0,0,0,0,0,0,0,0,0,0,0],"id":11,"left_children":[1,3,5,7,9,11,13,15,17,19,-1,21,-1,23,25,-1,-1,-1,-1,-1,-1,-1,-1,-1,-1,-1,-1],"loss_changes":[1.2461191E1,2.616345E0,2.90555E0,1.2932155E1,1.7917854E1,1.0264912E0,1.1022396E0,4.8334885E-1,6.687581E0,6.2573195E0,0E0,1.5234032E0,0E0,1.7675114E-1,2.6780696E0,0E0,0E0,0E0,0E0,0E0,0E0,0E0,0E0,0E0,0E0,0E0,0E0],"parents":[2147483647,0,0,1,1,2,2,3,3,4,4,5,5,6,6,7,7,8,8,9,9,11,11,13,13,14,14],"right_children":[2,4,6,8,10,12,14,16,18,20,-1,22,-1,24,26,-1,-1,-1,-1,-1,-1,-1,-1,-1,-1,-1,-1],"split_conditions":[1E0,1E0,1E0,1E0,1E0,1E0,1E0,1E0,1E0,1E0,3.4017008E-2,1E0,9.071128E-2,1E0,1E0,4.640184E-2,2.2504725E-2,-7.388074E-3,-1.00223556E-1,-8.178518E-2,2.180177E-3,1.5723562E-2,6.8663664E-2,2.16911E-2,6.6413395E-2,4.3865222E-2,-3.5862715E-3],"split_indices":[0,3,5,4,4,3,4,5,5,5,0,4,0,3,3,0,0,0,0,0,0,0,0,0,0,0,0],"split_type":[0,0,0,0,0,0,0,0,0,0,0,0,0,0,0,0,0,0,0,0,0,0,0,0,0,0,0],"sum_hessian":[6.5E1,4.2E1,2.3E1,2.3E1,1.9E1,9E0,1.4E1,1.5E1,8E0,1E1,9E0,6E0,3E0,3E0,1.1E1,7E0,8E0,6E0,2E0,7E0,3E0,4E0,2E0,2E0,1E0,4E0,7E0],"tree_param":{"num_deleted":"0","num_feature":"6","num_nodes":"27","size_leaf_vector":"1"}},{"base_weights":[2.7945455E-2,-5.5442E-1,1.4533435E0,9.3432136E-2,-6.972874E-1,9.498929E-2,8.1692255E-1,-4.009813E-1,-1.0450481E0,9.671388E-1,3.4981334E-1,-6.517683E-5,-3.8600877E-2,-6.717362E-2,-3.5463702E-2,8.812835E-2,1.4822707E-2,-8.7997496E-2,8.198588E-2],"categories":[],"categories_nodes":[],"categories_segments":[],"categories_sizes":[],"default_left":[0,0,0,0,0,0,0,0,0,0,0,0,0,0,0,0,0,0,0],"id":12,"left_children":[1,3,5,-1,7,-1,9,11,13,15,17,-1,-1,-1,-1,-1,-1,-1,-1],"loss_changes":[5.725274E1,1.8265636E1,4.1305275E0,0E0,4.4240055E0,0E0,3.633561E-1,4.002957E0,1.1513748E0,3.2118506E0,1.3771393E1,0E0,0E0,0E0,0E0,0E0,0E0,0E0,0E0],"parents":[2147483647,0,0,1,1,2,2,4,4,6,6,7,7,8,8,9,9,10,10],"right_children":[2,4,6,-1,8,-1,10,12,14,16,18,-1,-1,-1,-1,-1,-1,-1,-1],"split_conditions":[2E0,1E0,1E0,9.3432136E-2,1E0,9.498929E-2,1E0,1E0,1E0,1E0,1E0,-6.517683E-5,-3.8600877E-2,-6.717362E-2,-3.5463702E-2,8.812835E-2,1.4822707E-2,-8.7997496E-2,8.198588E-2],"split_indices":[1,1,5,0,2,0,2,4,5,4,4,0,0,0,0,0,0,0,0],"split_type":[0,0,0,0,0,0,0,0,0,0,0,0,0,0,0,0,0,0,0],"sum_hessian":[6.7E1,4.8E1,1.9E1,2E0,4.6E1,1E1,9E0,2.6E1,2E1,6E0,3E0,1.3E1,1.3E1,9E0,1.1E1,2E0,4E0,1E0,2E0],"tree_param":{"num_deleted":"0","num_feature":"6","num_nodes":"19","size_leaf_vector":"1"}},{"base_weights":[-2.7842903E-1,-1.0720153E0,1.1219481E0,-1.7247156E0,9.641752E-2,5.803235E-1,7.678028E-2,-7.7919304E-1,-2.5470443E0,4.8493984E-1,-3.527223E-1,2.7987733E-1,8.3412343E-1,6.9163494E-2,-5.2597087E-2,-1.5432304E-1,-8.783372E-2,-1.8147564E-2,6.1792146E-2,7.156021E-2,-5.929492E-2,4.8888605E-2,-4.882865E-2,4.956168E-3,7.6804124E-2],"categories":[],"categories_nodes":[],"categories_segments":[],"categories_sizes":[],"default_left":[0,0,0,0,0,0,0,0,0,0,0,0,0,0,0,0,0,0,0,0,0,0,0,0,0],"id":13,"left_children":[1,3,5,7,9,11,-1,13,15,17,19,21,23,-1,-1,-1,-1,-1,-1,-1,-1,-1,-1,-1,-1],"loss_changes":[7.3438545E1,3.219702E1,4.485983E0,1.9008682E1,2.9630625E0,6.8158674E-1,0E0,9.712443E0,5.468292E-1,6.178708E0,1.3587862E1,7.092956E0,2.943378E0,0E0,0E0,0E0,0E0,0E0,0E0,0E0,0E0,0E0,0E0,0E0,0E0],"parents":[2147483647,0,0,1,1,2,2,3,3,4,4,5,5,7,7,8,8,9,9,10,10,11,11,12,12],"right_children":[2,4,6,8,10,12,-1,14,16,18,20,22,24,-1,-1,-1,-1,-1,-1,-1,-1,-1,-1,-1,-1],"split_conditions":[2E0,1E0,1E0,1E0,1E0,1E0,7.678028E-2,1E0,1E0,1E0,1E0,1E0,1E0,6.9163494E-2,-5.2597087E-2,-1.5432304E-1,-8.783372E-2,-1.8147564E-2,6.1792146E-2,7.156021E-2,-5.929492E-2,4.8888605E-2,-4.882865E-2,4.956168E-3,7.6804124E-2],"split_indices":[1,0,0,4,5,5,0,1,5,4,4,4,4,0,0,0,0,0,0,0,0,0,0,0,0],"split_type":[0,0,0,0,0,0,0,0,0,0,0,0,0,0,0,0,0,0,0,0,0,0,0,0,0],"sum_hessian":[6.4E1,4.1E1,2.3E1,2.6E1,1.5E1,1.1E1,1.2E1,1.3E1,1.3E1,8E0,7E0,6E0,5E0,1E0,1.2E1,6E0,7E0,4E0,4E0,2E0,5E0,4E0,2E0,3E0,2E0],"tree_param":{"num_deleted":"0","num_feature":"6","num_nodes":"25","size_leaf_vector":"1"}},{"base_weights":[1.11698784E-1,-8.430147E-1,1.2120957E0,-1.5914689E0,1.070738E0,8.288377E-1,8.542427E-2,8.801229E-2,-1.930016E0,9.17902E-2,-7.906864E-2,5.080067E-2,2.7003033E-2,-6.360805E-2,-1.17801666E-1],"categories":[],"categories_nodes":[],"categories_segments":[],"categories_sizes":[],"default_left":[0,0,0,0,0,0,0,0,0,0,0,0,0,0,0],"id":14,"left_children":[1,3,5,7,9,11,-1,-1,13,-1,-1,-1,-1,-1,-1],"loss_changes":[7.246015E1,5.470124E1,4.671791E0,3.4034554E1,2.5222527E1,5.323324E-1,0E0,0E0,4.009186E0,0E0,0E0,0E0,0E0,0E0,0E0],"parents":[2147483647,0,0,1,1,2,2,3,3,4,4,5,5,8,8],"right_children":[2,4,6,8,10,12,-1,-1,14,-1,-1,-1,-1,-1,-1],"split_conditions":[1E0,2E0,2E0,1E0,1E0,1E0,8.542427E-2,8.801229E-2,1E0,9.17902E-2,-7.906864E-2,5.080067E-2,2.7003033E-2,-6.360805E-2,-1.17801666E-1],"split_indices":[0,1,1,1,2,3,0,0,3,0,0,0,0,0,0],"split_type":[0,0,0,0,0,0,0,0,0,0,0,0,0,0,0],"sum_hessian":[6.7E1,3.6E1,3.1E1,2.6E1,1E1,1.9E1,1.2E1,2E0,2.4E1,8E0,2E0,1E1,9E0,1.1E1,1.3E1],"tree_param":{"num_deleted":"0","num_feature":"6","num_nodes":"15","size_leaf_vector":"1"}},{"base_weights":[3.4442508E-1,-4.8909473E-1,7.850753E-2,-1.4430304E0,8.231731E-1,6.52341E-2,-1.5988917E0,1.0121324E0,4.1321754E-1,-5.277176E-2,-1.12201E-1,3.0432587E-2,6.355114E-2,7.5240634E-2,2.1151067E-3],"categories":[],"categories_nodes":[],"categories_segments":[],"categories_sizes":[],"default_left":[0,0,0,0,0,0,0,0,0,0,0,0,0,0,0],"id":15,"left_children":[1,3,-1,5,7,-1,9,11,13,-1,-1,-1,-1,-1,-1],"loss_changes":[7.84146E1,5.8771538E1,0E0,1.36491165E1,1.1310673E0,0E0,6.747162E0,5.843344E-1,3.1754591E0,0E0,0E0,0E0,0E0,0E0,0E0],"parents":[2147483647,0,0,1,1,3,3,4,4,6,6,7,7,8,8],"right_children":[2,4,-1,6,8,-1,10,12,14,-1,-1,-1,-1,-1,-1],"split_conditions":[2E0,1E0,7.850753E-2,1E0,1E0,6.52341E-2,1E0,1E0,1E0,-5.277176E-2,-1.12201E-1,3.0432587E-2,6.355114E-2,7.5240634E-2,2.1151067E-3],"split_indices":[1,0,0,1,5,0,4,4,4,0,0,0,0,0,0],"split_type":[0,0,0,0,0,0,0,0,0,0,0,0,0,0,0],"sum_hessian":[7.5E1,4.5E1,3E1,2.6E1,1.9E1,1E0,2.5E1,1.2E1,7E0,1.5E1,1E1,6E0,6E0,1E0,6E0],"tree_param":{"num_deleted":"0","num_feature":"6","num_nodes":"15","size_leaf_vector":"1"}},{"base_weights":[-5.9629824E-2,-5.041936E-1,4.8104233E-1,-4.310091E-2,-6.3490406E-2,7.772267E-1,7.3806E-2,4.7712186E-1,-4.5640573E-1,9.008936E-1,4.9457294E-1,3.1181636E-1,-2.4275105E-1,4.686944E-2,-6.96882E-3,-3.336743E-2,-9.42061E-3,5.948773E-2,2.6229968E-2,-2.5309915E-2,5.9813768E-2,1.1297822E-3,2.263304E-2,2.4460396E-2,-3.1668812E-2],"categories":[],"categories_nodes":[],"categories_segments":[],"categories_sizes":[],"default_left":[0,0,0,0,0,0,0,0,0,0,0,0,0,0,0,0,0,0,0,0,0,0,0,0,0],"id":16,"left_children":[1,3,5,7,-1,9,11,13,15,17,19,21,23,-1,-1,-1,-1,-1,-1,-1,-1,-1,-1,-1,-1],"loss_changes":[1.7548693E1,1.406604E1,3.922998E0,5.808037E0,0E0,2.1858597E-1,1.2058518E0,3.535694E0,7.222333E-1,6.802168E-1,6.2235017E0,3.5638797E-1,2.3113039E0,0E0,0E0,0E0,0E0,0E0,0E0,0E0,0E0,0E0,0E0,0E0,0E0],"parents":[2147483647,0,0,1,1,2,2,3,3,5,5,6,6,7,7,8,8,9,9,10,10,11,11,12,12],"right_children":[2,4,6,8,-1,10,12,14,16,18,20,22,24,-1,-1,-1,-1,-1,-1,-1,-1,-1,-1,-1,-1],"split_conditions":[1E0,1E0,1E0,1E0,-6.3490406E-2,1E0,1E0,1E0,1E0,1E0,1E0,1E0,1E0,4.686944E-2,-6.96882E-3,-3.336743E-2,-9.42061E-3,5.948773E-2,2.6229968E-2,-2.5309915E-2,5.9813768E-2,1.1297822E-3,2.263304E-2,2.4460396E-2,-3.1668812E-2],"split_indices":[0,2,5,5,0,2,2,3,3,3,3,3,3,0,0,0,0,0,0,0,0,0,0,0,0],"split_type":[0,0,0,0,0,0,0,0,0,0,0,0,0,0,0,0,0,0,0,0,0,0,0,0,0],"sum_hessian":[7.1E1,3.9E1,3.2E1,2.5E1,1.4E1,1.8E1,1.4E1,1.1E1,1.4E1,1.1E1,7E0,8E0,6E0,6E0,5E0,7E0,7E0,5E0,6E0,3E0,4E0,3E0,5E0,2E0,4E0],"tree_param":{"num_deleted":"0","num_feature":"6","num_nodes":"25","size_leaf_vector":"1"}},{"base_weights":[1.17780596E-1,-4.242109E-1,1.3042729E0,-1.1773498E0,7.2906476E-1,1.0145384E0,8.060286E-2,-3.2138634E-1,-1.110261E-1,4.9074702E-2,2.908414E-1,6.6468425E-2,5.5477434E-1,-7.893112E-2,7.602888E-2,-2.2518875E-3,1.7262904E-2,2.1477044E-3,4.6395052E-2],"categories":[],"categories_nodes":[],"categories_segments":[],"categories_sizes":[],"default_left":[0,0,0,0,0,0,0,0,0,0,0,0,0,0,0,0,0,0,0],"id":17,"left_children":[1,3,5,7,9,11,-1,13,-1,-1,15,-1,17,-1,-1,-1,-1,-1,-1],"loss_changes":[4.1066612E1,3.9075745E1,1.4801788E-1,2.3395119E1,1.7057085E0,1.1442184E0,0E0,3.9452957E1,0E0,0E0,1.6176915E-1,0E0,1.2969594E0,0E0,0E0,0E0,0E0,0E0,0E0],"parents":[2147483647,0,0,1,1,2,2,3,3,4,4,5,5,7,7,10,10,12,12],"right_children":[2,4,6,8,10,12,-1,14,-1,-1,16,-1,18,-1,-1,-1,-1,-1,-1],"split_conditions":[2E0,1E0,1E0,1E0,1E0,1E0,8.060286E-2,1E0,-1.110261E-1,4.9074702E-2,1E0,6.6468425E-2,1E0,-7.893112E-2,7.602888E-2,-2.2518875E-3,1.7262904E-2,2.1477044E-3,4.6395052E-2],"split_indices":[1,0,0,4,5,5,0,5,0,0,4,0,4,0,0,0,0,0,0],"split_type":[0,0,0,0,0,0,0,0,0,0,0,0,0,0,0,0,0,0,0],"sum_hessian":[6.2E1,4.3E1,1.9E1,2.6E1,1.7E1,1.2E1,7E0,1.5E1,1.1E1,1E1,7E0,6E0,6E0,9E0,6E0,1E0,6E0,3E0,3E0],"tree_param":{"num_deleted":"0","num_feature":"6","num_nodes":"19","size_leaf_vector":"1"}},{"base_weights":[-3.531657E-1,-1.27055E0,6.1143287E-2,-5.4631144E-1,-9.85518E-2,8.610782E-2,-5.02095E-2,2.9351586E-2,-3.162036E-2],"categories":[],"categories_nodes":[],"categories_segments":[],"categories_sizes":[],"default_left":[0,0,0,0,0,0,0,0,0],"id":18,"left_children":[1,3,-1,5,-1,7,-1,-1,-1],"loss_changes":[1.0565323E2,2.2259872E1,0E0,7.036178E0,0E0,4.3303776E0,0E0,0E0,0E0],"parents":[2147483647,0,0,1,1,3,3,5,5],"right_children":[2,4,-1,6,-1,8,-1,-1,-1],"split_conditions":[2E0,1E0,6.1143287E-2,1E0,-9.85518E-2,1E0,-5.02095E-2,2.9351586E-2,-3.162036E-2],"split_indices":[1,4,0,3,0,2,0,0,0],"split_type":[0,0,0,0,0,0,0,0,0],"sum_hessian":[7.1E1,4.5E1,2.6E1,2.3E1,2.2E1,1E1,1.3E1,6E0,4E0],"tree_param":{"num_deleted":"0","num_feature":"6","num_nodes":"9","size_leaf_vector":"1"}},{"base_weights":[8.798865E-2,-6.675184E-1,1.159749E0,-4.3991804E-2,-7.415738E-2,1.5825307E0,5.346262E-1,9.106558E-1,-7.749521E-1,5.914514E-2,9.9241115E-2,6.054248E-3,4.6399333E-2,8.174904E-2,2.6260098E-2,-5.1176954E-2,-8.625255E-3],"categories":[],"categories_nodes":[],"categories_segments":[],"categories_sizes":[],"default_left":[0,0,0,0,0,0,0,0,0,0,0,0,0,0,0,0,0],"id":19,"left_children":[1,3,5,7,-1,9,11,13,15,-1,-1,-1,-1,-1,-1,-1,-1],"loss_changes":[5.097695E1,1.8751709E1,6.025486E0,1.6057524E1,0E0,6.365204E-2,1.839684E0,1.9332428E0,1.7703214E0,0E0,0E0,0E0,0E0,0E0,0E0,0E0,0E0],"parents":[2147483647,0,0,1,1,2,2,3,3,5,5,6,6,7,7,8,8],"right_children":[2,4,6,8,-1,10,12,14,16,-1,-1,-1,-1,-1,-1,-1,-1],"split_conditions":[2E0,1E0,1E0,1E0,-7.415738E-2,1E0,1E0,1E0,1E0,5.914514E-2,9.9241115E-2,6.054248E-3,4.6399333E-2,8.174904E-2,2.6260098E-2,-5.1176954E-2,-8.625255E-3],"split_indices":[1,4,5,3,0,4,3,1,5,0,0,0,0,0,0,0,0],"split_type":[0,0,0,0,0,0,0,0,0,0,0,0,0,0,0,0,0],"sum_hessian":[6.1E1,3.6E1,2.5E1,2.1E1,1.5E1,1.4E1,1.1E1,9E0,1.2E1,9E0,5E0,6E0,5E0,2E0,7E0,8E0,4E0],"tree_param":{"num_deleted":"0","num_feature":"6","num_nodes":"17","size_leaf_vector":"1"}},{"base_weights":[1.9320661E-1,-3.355995E-1,1.0739452E0,1.8231182E-1,-8.395275E-1,3.8784456E-2,6.2457837E-2,7.902407E-2,-1.6634572E-2,-6.129695E-1,-5.477059E-2,-4.5996807E-3,3.3543762E-3,-7.4593984E-3,-4.5279037E-2],"categories":[],"categories_nodes":[],"categories_segments":[],"categories_sizes":[],"default_left":[0,0,0,0,0,0,0,0,0,0,0,0,0,0,0],"id":20,"left_children":[1,3,5,7,9,-1,-1,-1,11,13,-1,-1,-1,-1,-1],"loss_changes":[3.4825172E1,1.2419586E1,4.942665E-1,6.70215E0,7.198887E-1,0E0,0E0,0E0,1.4497438E-1,1.9005136E0,0E0,0E0,0E0,0E0,0E0],"parents":[2147483647,0,0,1,1,2,2,3,3,4,4,8,8,9,9],"right_children":[2,4,6,8,10,-1,-1,-1,12,14,-1,-1,-1,-1,-1],"split_conditions":[2E0,1E0,1E0,1E0,1E0,3.8784456E-2,6.2457837E-2,7.902407E-2,1E0,1E0,-5.477059E-2,-4.5996807E-3,3.3543762E-3,-7.4593984E-3,-4.5279037E-2],"split_indices":[1,3,3,1,4,0,0,0,2,2,0,0,0,0,0],"split_type":[0,0,0,0,0,0,0,0,0,0,0,0,0,0,0],"sum_hessian":[7.3E1,4.6E1,2.7E1,2.3E1,2.3E1,1.2E1,1.5E1,2E0,2.1E1,1.4E1,9E0,1.1E1,1E1,6E0,8E0],"tree_param":{"num_deleted":"0","num_feature":"6","num_nodes":"15","size_leaf_vector":"1"}},{"base_weights":[3.6719567E-1,-7.432099E-2,1.0614966E0,2.1873422E-1,-4.3195853E-1,7.910482E-2,4.5243883E-1,6.324194E-1,-4.0311486E-1,-3.0987171E-2,-1.9617827E-1,7.8749835E-2,9.598535E-1,7.307072E-2,-3.4189613E-3,-3.8188096E-2,1.9077588E-3,-2.3163905E-2,5.5078603E-3,-3.866122E-2,2.4580598E-2,7.060628E-2,9.381517E-3],"categories":[],"categories_nodes":[],"categories_segments":[],"categories_sizes":[],"default_left":[0,0,0,0,0,0,0,0,0,0,0,0,0,0,0,0,0,0,0,0,0,0,0],"id":21,"left_children":[1,3,5,7,9,-1,11,13,15,-1,17,19,21,-1,-1,-1,-1,-1,-1,-1,-1,-1,-1],"loss_changes":[1.8165071E1,3.9723632E0,6.576931E0,5.6571827E0,6.3111115E-1,0E0,2.199795E0,7.652391E0,1.4614261E0,0E0,7.874328E-1,3.1941092E0,1.481317E0,0E0,0E0,0E0,0E0,0E0,0E0,0E0,0E0,0E0,0E0],"parents":[2147483647,0,0,1,1,2,2,3,3,4,4,6,6,7,7,8,8,10,10,11,11,12,12],"right_children":[2,4,6,8,10,-1,12,14,16,-1,18,20,22,-1,-1,-1,-1,-1,-1,-1,-1,-1,-1],"split_conditions":[1E0,1E0,1E0,1E0,1E0,7.910482E-2,1E0,1E0,1E0,-3.0987171E-2,1E0,1E0,1E0,7.307072E-2,-3.4189613E-3,-3.8188096E-2,1.9077588E-3,-2.3163905E-2,5.5078603E-3,-3.866122E-2,2.4580598E-2,7.060628E-2,9.381517E-3],"split_indices":[0,2,5,3,3,0,2,5,5,0,5,3,3,0,0,0,0,0,0,0,0,0,0],"split_type":[0,0,0,0,0,0,0,0,0,0,0,0,0,0,0,0,0,0,0,0,0,0,0],"sum_hessian":[5.8E1,3.6E1,2.2E1,2E1,1.6E1,1.1E1,1.1E1,1.2E1,8E0,8E0,8E0,7E0,4E0,5E0,7E0,4E0,4E0,4E0,4E0,2E0,5E0,2E0,2E0],"tree_param":{"num_deleted":"0","num_feature":"6","num_nodes":"23","size_leaf_vector":"1"}},{"base_weights":[1.3435969E-1,-5.6344694E-1,1.3208477E0,-1.3219572E0,5.851532E-1,7.665749E-2,7.046E-1,5.7869077E-2,-1.4734873E0,5.7713497E-2,-3.9276627E-1,-2.9725105E-1,8.9038186E-2,-4.5963876E-2,-1.0787266E-1,-9.998756E-3,-2.4368292E-2,4.0521007E-2,-1.18198395E-1],"categories":[],"categories_nodes":[],"categories_segments":[],"categories_sizes":[],"default_left":[0,0,0,0,0,0,0,0,0,0,0,0,0,0,0,0,0,0,0],"id":22,"left_children":[1,3,5,7,9,-1,11,-1,13,-1,15,17,-1,-1,-1,-1,-1,-1,-1],"loss_changes":[5.373234E1,3.6493774E1,2.0596771E0,1.1097744E1,9.914715E0,0E0,9.154579E0,0E0,7.114155E0,0E0,3.0204654E-2,1.3362021E1,0E0,0E0,0E0,0E0,0E0,0E0,0E0],"parents":[2147483647,0,0,1,1,2,2,3,3,4,4,6,6,8,8,10,10,11,11],"right_children":[2,4,6,8,10,-1,12,-1,14,-1,16,18,-1,-1,-1,-1,-1,-1,-1],"split_conditions":[1E0,2E0,1E0,1E0,1E0,7.665749E-2,2E0,5.7869077E-2,1E0,5.7713497E-2,1E0,1E0,8.9038186E-2,-4.5963876E-2,-1.0787266E-1,-9.998756E-3,-2.4368292E-2,4.0521007E-2,-1.18198395E-1],"split_indices":[0,1,4,1,2,0,1,0,4,0,4,2,0,0,0,0,0,0,0],"split_type":[0,0,0,0,0,0,0,0,0,0,0,0,0,0,0,0,0,0,0],"sum_hessian":[6.3E1,4E1,2.3E1,2.4E1,1.6E1,1.6E1,7E0,1E0,2.3E1,1E1,6E0,4E0,3E0,1.4E1,9E0,3E0,3E0,3E0,1E0],"tree_param":{"num_deleted":"0","num_feature":"6","num_nodes":"19","size_leaf_vector":"1"}},{"base_weights":[-1.0737415E-1,-5.3493077E-1,7.1375096E-1,1.2420901E-1,-1.3393741E0,6.440951E-2,1.2770247E-1,5.4582596E-1,-4.2368612E-1,-8.828669E-2,-3.347243E-2,-5.6438856E-2,3.212503E-1,1.5026445E-2,3.7409518E-2,1.3154698E-2,-3.570577E-2,1.9228507E-2,-3.8632046E-2,-5.626426E-2,4.178072E-2],"categories":[],"categories_nodes":[],"categories_segments":[],"categories_sizes":[],"default_left":[0,0,0,0,0,0,0,0,0,0,0,0,0,0,0,0,0,0,0,0,0],"id":23,"left_children":[1,3,5,7,9,-1,11,13,15,-1,-1,17,19,-1,-1,-1,-1,-1,-1,-1,-1],"loss_changes":[2.249969E1,2.2436468E1,7.2417774E0,5.775304E0,4.2448883E0,0E0,4.4581276E-1,4.700985E-1,2.3819504E0,0E0,0E0,2.5080953E0,5.40458E0,0E0,0E0,0E0,0E0,0E0,0E0,0E0,0E0],"parents":[2147483647,0,0,1,1,2,2,3,3,4,4,6,6,7,7,8,8,11,11,12,12],"right_children":[2,4,6,8,10,-1,12,14,16,-1,-1,18,20,-1,-1,-1,-1,-1,-1,-1,-1],"split_conditions":[2E0,1E0,1E0,1E0,1E0,6.440951E-2,1E0,1E0,1E0,-8.828669E-2,-3.347243E-2,1E0,1E0,1.5026445E-2,3.7409518E-2,1.3154698E-2,-3.570577E-2,1.9228507E-2,-3.8632046E-2,-5.626426E-2,4.178072E-2],"split_indices":[1,3,5,4,4,0,3,5,5,0,0,4,4,0,0,0,0,0,0,0,0],"split_type":[0,0,0,0,0,0,0,0,0,0,0,0,0,0,0,0,0,0,0,0,0],"sum_hessian":[6.2E1,4.1E1,2.1E1,2.3E1,1.8E1,1E1,1.1E1,1.3E1,1E1,1E1,8E0,6E0,5E0,7E0,6E0,3E0,7E0,4E0,2E0,1E0,4E0],"tree_param":{"num_deleted":"0","num_feature":"6","num_nodes":"21","size_leaf_vector":"1"}},{"base_weights":[-1.4981249E-2,-7.530409E-1,9.080615E-1,-3.8012603E-1,-6.74612E-2,1.2014912E0,6.130888E-1,3.6360645E-1,-4.3384213E-2,3.2171106E-1,9.655426E-2,4.1916605E-2,2.267431E-1,5.9414185E-3,3.1678725E-2,3.278761E-2,-8.813405E-3,3.0535564E-2,-1.5157461E-4],"categories":[],"categories_nodes":[],"categories_segments":[],"categories_sizes":[],"default_left":[0,0,0,0,0,0,0,0,0,0,0,0,0,0,0,0,0,0,0],"id":24,"left_children":[1,3,5,7,-1,9,11,13,-1,15,-1,-1,17,-1,-1,-1,-1,-1,-1],"loss_changes":[4.905331E1,8.380148E0,2.0331001E0,9.74343E0,0E0,9.006981E0,1.376306E0,6.5161824E-1,0E0,1.4463522E0,0E0,0E0,7.0766044E-1,0E0,0E0,0E0,0E0,0E0,0E0],"parents":[2147483647,0,0,1,1,2,2,3,3,5,5,6,6,7,7,9,9,12,12],"right_children":[2,4,6,8,-1,10,12,14,-1,16,-1,-1,18,-1,-1,-1,-1,-1,-1],"split_conditions":[1E0,1E0,1E0,1E0,-6.74612E-2,1E0,1E0,1E0,-4.3384213E-2,1E0,9.655426E-2,4.1916605E-2,1E0,5.9414185E-3,3.1678725E-2,3.278761E-2,-8.813405E-3,3.0535564E-2,-1.5157461E-4],"split_indices":[0,4,3,3,0,2,2,2,0,4,0,0,4,0,0,0,0,0,0],"split_type":[0,0,0,0,0,0,0,0,0,0,0,0,0,0,0,0,0,0,0],"sum_hessian":[7E1,3.9E1,3.1E1,2.5E1,1.4E1,1.4E1,1.7E1,1E1,1.5E1,7E0,7E0,1E1,7E0,6E0,4E0,4E0,3E0,2E0,5E0],"tree_param":{"num_deleted":"0","num_feature":"6","num_nodes":"19","size_leaf_vector":"1"}},{"base_weights":[2.636919E-1,7.7004594E-1,-2.0679444E-1,4.768211E-2,5.268471E-1,-9.312017E-1,5.291014E-1,8.073452E-2,4.8143394E-2,-1.2781242E0,-3.3778298E-1,1.4267878E-2,5.8542993E-2,3.5877462E-2,-4.473356E-2,-2.339479E-2,-1.07840955E-1,-4.9414854E-2,2.799027E-2,-2.4049586E-2,2.5357474E-2],"categories":[],"categories_nodes":[],"categories_segments":[],"categories_sizes":[],"default_left":[0,0,0,0,0,0,0,0,0,0,0,0,0,0,0,0,0,0,0,0,0],"id":25,"left_children":[1,3,5,-1,7,9,11,13,-1,15,17,19,-1,-1,-1,-1,-1,-1,-1,-1,-1],"loss_changes":[1.5882599E1,9.263897E-1,1.9150787E1,0E0,3.0344925E0,3.2739372E0,5.930471E0,6.232345E0,0E0,6.822214E0,5.2244053E0,2.9290822E0,0E0,0E0,0E0,0E0,0E0,0E0,0E0,0E0,0E0],"parents":[2147483647,0,0,1,1,2,2,4,4,5,5,6,6,7,7,9,9,10,10,11,11],"right_children":[2,4,6,-1,8,10,12,14,-1,16,18,20,-1,-1,-1,-1,-1,-1,-1,-1,-1],"split_conditions":[1E0,1E0,1E0,4.768211E-2,1E0,1E0,1E0,1E0,4.8143394E-2,1E0,1E0,1E0,5.8542993E-2,3.5877462E-2,-4.473356E-2,-2.339479E-2,-1.07840955E-1,-4.9414854E-2,2.799027E-2,-2.4049586E-2,2.5357474E-2],"split_indices":[3,5,5,0,2,4,2,4,0,2,2,4,0,0,0,0,0,0,0,0,0],"split_type":[0,0,0,0,0,0,0,0,0,0,0,0,0,0,0,0,0,0,0,0,0],"sum_hessian":[6.5E1,3.1E1,3.4E1,1.6E1,1.5E1,1.7E1,1.7E1,8E0,7E0,1E1,7E0,1E1,7E0,5E0,3E0,6E0,4E0,4E0,3E0,5E0,5E0],"tree_param":{"num_deleted":"0","num_feature":"6","num_nodes":"21","size_leaf_vector":"1"}},{"base_weights":[1.7672454E-1,-1.2021607E-1,6.838631E-1,-7.692347E-1,3.8365272E-1,1.6651835E-1,9.9679625E-1,5.1811565E-2,-9.1879773E-1,6.6972464E-1,-5.908211E-3,2.8943267E-2,3.258198E-1,6.048479E-1,6.565692E-2,-6.932997E-2,-5.1122843E-3,4.6821833E-2,1.155671E-2,2.3985684E-3,-4.546695E-3,4.02174E-2,-3.7684865E-2,-2.4731128E-2,5.1882774E-2,4.0323567E-2,-3.36113E-3],"categories":[],"categories_nodes":[],"categories_segments":[],"categories_sizes":[],"default_left":[0,0,0,0,0,0,0,0,0,0,0,0,0,0,0,0,0,0,0,0,0,0,0,0,0,0,0],"id":26,"left_children":[1,3,5,7,9,11,13,-1,15,17,19,21,23,25,-1,-1,-1,-1,-1,-1,-1,-1,-1,-1,-1,-1,-1],"loss_changes":[1.0623514E1,1.501103E1,4.0432673E0,6.352707E0,2.9014602E0,2.316446E-1,1.1895876E0,0E0,7.1159267E0,1.5382166E0,5.9336003E-2,4.8542767E0,3.4333487E0,1.2737591E0,0E0,0E0,0E0,0E0,0E0,0E0,0E0,0E0,0E0,0E0,0E0,0E0,0E0],"parents":[2147483647,0,0,1,1,2,2,3,3,4,4,5,5,6,6,8,8,9,9,10,10,11,11,12,12,13,13],"right_children":[2,4,6,8,10,12,14,-1,16,18,20,22,24,26,-1,-1,-1,-1,-1,-1,-1,-1,-1,-1,-1,-1,-1],"split_conditions":[2E0,1E0,1E0,1E0,1E0,1E0,1E0,5.1811565E-2,1E0,1E0,1E0,1E0,1E0,1E0,6.565692E-2,-6.932997E-2,-5.1122843E-3,4.6821833E-2,1.155671E-2,2.3985684E-3,-4.546695E-3,4.02174E-2,-3.7684865E-2,-2.4731128E-2,5.1882774E-2,4.0323567E-2,-3.36113E-3],"split_indices":[1,5,3,1,3,5,4,0,4,4,4,4,4,5,0,0,0,0,0,0,0,0,0,0,0,0,0],"split_type":[0,0,0,0,0,0,0,0,0,0,0,0,0,0,0,0,0,0,0,0,0,0,0,0,0,0,0],"sum_hessian":[6.9E1,4.4E1,2.5E1,1.9E1,2.5E1,1E1,1.5E1,1E0,1.8E1,1.4E1,1.1E1,6E0,4E0,8E0,7E0,1.1E1,7E0,8E0,6E0,7E0,4E0,3E0,3E0,2E0,2E0,6E0,2E0],"tree_param":{"num_deleted":"0","num_feature":"6","num_nodes":"27","size_leaf_vector":"1"}},{"base_weights":[-2.1634021E-1,-6.892688E-1,6.1555046E-1,-2.9314408E-1,-1.1571355E0,7.9346824E-1,1.8277103E-1,3.6765343E-1,-1.1889462E0,-8.7879464E-2,-2.5050683E-2,4.560349E-2,2.5534242E-2,-4.8272368E-2,1.0647914E0,3.3291373E-2,-7.0441565E-3,-8.606172E-2,-3.57466E-2,7.495885E-2,1.3773768E-2],"categories":[],"categories_nodes":[],"categories_segments":[],"categories_sizes":[],"default_left":[0,0,0,0,0,0,0,0,0,0,0,0,0,0,0,0,0,0,0,0,0],"id":27,"left_children":[1,3,5,7,9,11,13,15,17,-1,-1,-1,-1,-1,19,-1,-1,-1,-1,-1,-1],"loss_changes":[2.4816624E1,7.074135E0,1.6259584E0,1.4051828E1,6.2108994E0,7.083702E-2,9.130016E0,2.2166574E0,1.2925549E0,0E0,0E0,0E0,0E0,0E0,1.301352E0,0E0,0E0,0E0,0E0,0E0,0E0],"parents":[2147483647,0,0,1,1,2,2,3,3,4,4,5,5,6,6,7,7,8,8,14,14],"right_children":[2,4,6,8,10,12,14,16,18,-1,-1,-1,-1,-1,20,-1,-1,-1,-1,-1,-1],"split_conditions":[1E0,1E0,1E0,1E0,1E0,1E0,1E0,1E0,1E0,-8.7879464E-2,-2.5050683E-2,4.560349E-2,2.5534242E-2,-4.8272368E-2,1E0,3.3291373E-2,-7.0441565E-3,-8.606172E-2,-3.57466E-2,7.495885E-2,1.3773768E-2],"split_indices":[0,4,2,3,3,4,4,2,2,0,0,0,0,0,3,0,0,0,0,0,0],"split_type":[0,0,0,0,0,0,0,0,0,0,0,0,0,0,0,0,0,0,0,0,0],"sum_hessian":[6.1E1,3.9E1,2.2E1,2.2E1,1.7E1,1.5E1,7E0,1.3E1,9E0,8E0,9E0,9E0,6E0,3E0,4E0,8E0,5E0,3E0,6E0,2E0,2E0],"tree_param":{"num_deleted":"0","num_feature":"6","num_nodes":"21","size_leaf_vector":"1"}},{"base_weights":[-2.5284857E-1,-6.6656786E-1,4.4604832E-1,-1.263495E0,6.1151934E-1,8.877034E-1,-1.7999585E-1,-6.124688E-1,-1.0589015E-1,3.5906594E-2,2.5466785E-1,4.3087587E-1,7.886351E-2,4.2189155E-2,-7.973582E-1,-8.282478E-2,2.4640244E-2,-8.286151E-3,2.9508471E-2,1.0228253E-2,2.9268702E-2,-1.938859E-2,-5.5500086E-2],"categories":[],"categories_nodes":[],"categories_segments":[],"categories_sizes":[],"default_left":[0,0,0,0,0,0,0,0,0,0,0,0,0,0,0,0,0,0,0,0,0,0,0],"id":28,"left_children":[1,3,5,7,9,11,13,15,-1,-1,17,19,-1,-1,21,-1,-1,-1,-1,-1,-1,-1,-1],"loss_changes":[2.0826769E1,3.510427E1,7.6251645E0,1.5944389E1,3.8778734E-1,4.3606014E0,8.257308E0,2.2741096E1,0E0,0E0,8.0301356E-1,2.6486373E-1,0E0,0E0,5.940089E-1,0E0,0E0,0E0,0E0,0E0,0E0,0E0,0E0],"parents":[2147483647,0,0,1,1,2,2,3,3,4,4,5,5,6,6,7,7,10,10,11,11,14,14],"right_children":[2,4,6,8,10,12,14,16,-1,-1,18,20,-1,-1,22,-1,-1,-1,-1,-1,-1,-1,-1],"split_conditions":[1E0,2E0,1E0,1E0,1E0,1E0,1E0,1E0,-1.0589015E-1,3.5906594E-2,1E0,2E0,7.886351E-2,4.2189155E-2,2E0,-8.282478E-2,2.4640244E-2,-8.286151E-3,2.9508471E-2,1.0228253E-2,2.9268702E-2,-1.938859E-2,-5.5500086E-2],"split_indices":[0,1,5,4,5,4,4,5,0,0,4,1,0,0,1,0,0,0,0,0,0,0,0],"split_type":[0,0,0,0,0,0,0,0,0,0,0,0,0,0,0,0,0,0,0,0,0,0,0],"sum_hessian":[7E1,4.4E1,2.6E1,3E1,1.4E1,1.5E1,1.1E1,1.8E1,1.2E1,1E1,4E0,1E1,5E0,4E0,7E0,9E0,9E0,2E0,2E0,5E0,5E0,4E0,3E0],"tree_param":{"num_deleted":"0","num_feature":"6","num_nodes":"23","size_leaf_vector":"1"}},{"base_weights":[6.4554475E-2,-5.388699E-1,1.0424293E0,-8.464684E-1,-4.3792814E-2,7.265655E-1,1.297746E0,-3.0571207E-1,-1.3617487E0,8.921262E-2,-1.3251734E-1,3.1981102E-1,5.1476248E-2,9.2124365E-2,1.666108E-1,1.200097E-3,-2.9587647E-2,-5.232456E-2,-9.793454E-2,3.137092E-2,-4.1876722E-2,-7.213338E-2,8.667565E-3,3.6202617E-2,-8.219153E-3,-5.499077E-3,3.1824507E-2],"categories":[],"categories_nodes":[],"categories_segments":[],"categories_sizes":[],"default_left":[0,0,0,0,0,0,0,0,0,0,0,0,0,0,0,0,0,0,0,0,0,0,0,0,0,0,0],"id":29,"left_children":[1,3,5,7,9,11,13,15,17,19,21,23,-1,-1,25,-1,-1,-1,-1,-1,-1,-1,-1,-1,-1,-1,-1],"loss_changes":[3.714629E1,5.9020452E0,9.9258995E-1,6.271082E0,2.0063572E-1,1.272738E0,7.0871334E0,1.240255E0,2.0853424E-1,4.016948E0,4.2574263E0,1.4891405E0,0E0,0E0,7.198273E-1,0E0,0E0,0E0,0E0,0E0,0E0,0E0,0E0,0E0,0E0,0E0,0E0],"parents":[2147483647,0,0,1,1,2,2,3,3,4,4,5,5,6,6,7,7,8,8,9,9,10,10,11,11,14,14],"right_children":[2,4,6,8,10,12,14,16,18,20,22,24,-1,-1,26,-1,-1,-1,-1,-1,-1,-1,-1,-1,-1,-1,-1],"split_conditions":[2E0,1E0,1E0,1E0,1E0,1E0,1E0,1E0,1E0,1E0,1E0,1E0,5.1476248E-2,9.2124365E-2,1E0,1.200097E-3,-2.9587647E-2,-5.232456E-2,-9.793454E-2,3.137092E-2,-4.1876722E-2,-7.213338E-2,8.667565E-3,3.6202617E-2,-8.219153E-3,-5.499077E-3,3.1824507E-2],"split_indices":[1,0,4,3,3,0,0,4,4,4,4,3,0,0,3,0,0,0,0,0,0,0,0,0,0,0,0],"split_type":[0,0,0,0,0,0,0,0,0,0,0,0,0,0,0,0,0,0,0,0,0,0,0,0,0,0,0],"sum_hessian":[6.1E1,3.8E1,2.3E1,2.3E1,1.5E1,1.2E1,1.1E1,1.2E1,1.1E1,6E0,9E0,6E0,6E0,7E0,4E0,6E0,6E0,9E0,2E0,4E0,2E0,1E0,8E0,3E0,3E0,3E0,1E0],"tree_param":{"num_deleted":"0","num_feature":"6","num_nodes":"27","size_leaf_vector":"1"}},{"base_weights":[2.348064E-1,-3.0291292E-1,9.753867E-1,-7.593629E-1,4.0069407E-1,5.6607604E-2,7.640465E-1,-2.8751773E-1,-7.569125E-2,1.0091982E0,-1.1398547E0,5.9449296E-3,9.878368E-1,5.172459E-2,-2.2230892E-2,2.7666053E-2,5.8398582E-2,-8.837856E-2,-2.7051633E-2,3.1447228E-2,6.4635925E-2],"categories":[],"categories_nodes":[],"categories_segments":[],"categories_sizes":[],"default_left":[0,0,0,0,0,0,0,0,0,0,0,0,0,0,0,0,0,0,0,0,0],"id":30,"left_children":[1,3,5,7,9,-1,11,13,-1,15,17,-1,19,-1,-1,-1,-1,-1,-1,-1,-1],"loss_changes":[2.6578262E1,1.2829567E1,6.2646866E-2,8.108491E0,1.6149221E1,0E0,2.048215E0,3.782958E0,0E0,2.2231102E-1,9.231386E-1,0E0,3.9056778E-1,0E0,0E0,0E0,0E0,0E0,0E0,0E0,0E0],"parents":[2147483647,0,0,1,1,2,2,3,3,4,4,6,6,7,7,9,9,10,10,12,12],"right_children":[2,4,6,8,10,-1,12,14,-1,16,18,-1,20,-1,-1,-1,-1,-1,-1,-1,-1],"split_conditions":[1E0,2E0,1E0,1E0,1E0,5.6607604E-2,1E0,1E0,-7.569125E-2,1E0,1E0,5.9449296E-3,2E0,5.172459E-2,-2.2230892E-2,2.7666053E-2,5.8398582E-2,-8.837856E-2,-2.7051633E-2,3.1447228E-2,6.4635925E-2],"split_indices":[0,1,4,4,2,0,2,1,0,4,4,0,1,0,0,0,0,0,0,0,0],"split_type":[0,0,0,0,0,0,0,0,0,0,0,0,0,0,0,0,0,0,0,0,0],"sum_hessian":[6.5E1,3.8E1,2.7E1,2.3E1,1.5E1,1.3E1,1.4E1,1.5E1,8E0,1.1E1,4E0,4E0,1E1,1E0,1.4E1,4E0,7E0,1E0,3E0,6E0,4E0],"tree_param":{"num_deleted":"0","num_feature":"6","num_nodes":"21","size_leaf_vector":"1"}},{"base_weights":[8.853371E-2,-6.559139E-1,1.0159312E0,5.043148E-2,-7.345366E-1,6.5785867E-1,1.2824036E0,-4.6238786E-1,-8.6196375E-1,7.8476983E-1,3.5784873E-1,7.6977766E-1,8.173646E-2,-4.0618896E-2,-2.3171187E-3,-2.4522664E-2,-5.653424E-2,5.147156E-2,1.1079269E-2,-3.0649915E-2,4.9826093E-2,4.755936E-2,-1.2502218E-2],"categories":[],"categories_nodes":[],"categories_segments":[],"categories_sizes":[],"default_left":[0,0,0,0,0,0,0,0,0,0,0,0,0,0,0,0,0,0,0,0,0,0,0],"id":31,"left_children":[1,3,5,-1,7,9,11,13,15,17,19,21,-1,-1,-1,-1,-1,-1,-1,-1,-1,-1,-1],"loss_changes":[4.3471092E1,5.3213606E0,1.8280201E0,0E0,7.80529E-1,2.5221586E-1,1.4507904E0,1.8553057E0,1.6417694E0,1.0119982E0,4.3311896E0,1.7178817E0,0E0,0E0,0E0,0E0,0E0,0E0,0E0,0E0,0E0,0E0,0E0],"parents":[2147483647,0,0,1,1,2,2,4,4,5,5,6,6,7,7,8,8,9,9,10,10,11,11],"right_children":[2,4,6,-1,8,10,12,14,16,18,20,22,-1,-1,-1,-1,-1,-1,-1,-1,-1,-1,-1],"split_conditions":[2E0,1E0,1E0,5.043148E-2,1E0,1E0,1E0,1E0,1E0,1E0,1E0,1E0,8.173646E-2,-4.0618896E-2,-2.3171187E-3,-2.4522664E-2,-5.653424E-2,5.147156E-2,1.1079269E-2,-3.0649915E-2,4.9826093E-2,4.755936E-2,-1.2502218E-2],"split_indices":[1,1,3,0,4,2,4,3,2,4,4,2,0,0,0,0,0,0,0,0,0,0,0],"split_type":[0,0,0,0,0,0,0,0,0,0,0,0,0,0,0,0,0,0,0,0,0,0,0],"sum_hessian":[6.1E1,3.4E1,2.7E1,1E0,3.3E1,1.3E1,1.4E1,1.2E1,2.1E1,8E0,5E0,7E0,7E0,6E0,6E0,1E1,1.1E1,5E0,3E0,2E0,3E0,6E0,1E0],"tree_param":{"num_deleted":"0","num_feature":"6","num_nodes":"23","size_leaf_vector":"1"}},{"base_weights":[5.6743976E-2,-4.096409E-1,9.126224E-1,2.3264687E-3,-8.2170945E-1,4.235374E-1,1.2666508E0,3.356323E-1,-3.055194E-1,-5.8691807E-2,-4.6054766E-1,6.8601435E-1,-2.9628245E-2,4.4275314E-2,8.8780485E-2,3.472903E-2,-9.992565E-4,-7.3028505E-3,-2.3360802E-2,-3.1631585E-2,-7.7172196E-3,4.486003E-2,1.9784506E-2],"categories":[],"categories_nodes":[],"categories_segments":[],"categories_sizes":[],"default_left":[0,0,0,0,0,0,0,0,0,0,0,0,0,0,0,0,0,0,0,0,0,0,0],"id":32,"left_children":[1,3,5,7,9,11,13,15,17,-1,19,21,-1,-1,-1,-1,-1,-1,-1,-1,-1,-1,-1],"loss_changes":[2.8315659E1,7.8108163E0,3.7922764E0,2.5651057E0,2.3844109E0,3.606949E0,1.1435013E0,1.5456606E0,2.669587E-1,0E0,5.873618E-1,2.5811148E-1,0E0,0E0,0E0,0E0,0E0,0E0,0E0,0E0,0E0,0E0,0E0],"parents":[2147483647,0,0,1,1,2,2,3,3,4,4,5,5,6,6,7,7,8,8,10,10,11,11],"right_children":[2,4,6,8,10,12,14,16,18,-1,20,22,-1,-1,-1,-1,-1,-1,-1,-1,-1,-1,-1],"split_conditions":[2E0,1E0,1E0,1E0,1E0,1E0,1E0,1E0,1E0,-5.8691807E-2,1E0,1E0,-2.9628245E-2,4.4275314E-2,8.8780485E-2,3.472903E-2,-9.992565E-4,-7.3028505E-3,-2.3360802E-2,-3.1631585E-2,-7.7172196E-3,4.486003E-2,1.9784506E-2],"split_indices":[1,3,4,4,4,2,2,2,2,0,2,3,0,0,0,0,0,0,0,0,0,0,0],"split_type":[0,0,0,0,0,0,0,0,0,0,0,0,0,0,0,0,0,0,0,0,0,0,0],"sum_hessian":[6.9E1,4.5E1,2.4E1,2.3E1,2.2E1,1.1E1,1.3E1,1.1E1,1.2E1,1E1,1.2E1,9E0,2E0,9E0,4E0,5E0,6E0,7E0,5E0,7E0,5E0,4E0,5E0],"tree_param":{"num_deleted":"0","num_feature":"6","num_nodes":"23","size_leaf_vector":"1"}},{"base_weights":[1.0162381E-1,-3.063548E-1,6.267211E-1,3.399128E-1,-5.953529E-2,1.2022302E0,6.446157E-3,-4.245925E-2,9.665748E-1,3.306308E-2,8.243664E-2,-1.0285183E0,3.8221085E-1,5.390487E-3,-8.431861E-3,6.107488E-2,-2.044711E-2,-1.2126462E-2,-8.466214E-2,-3.0280486E-2,6.531648E-2],"categories":[],"categories_nodes":[],"categories_segments":[],"categories_sizes":[],"default_left":[0,0,0,0,0,0,0,0,0,0,0,0,0,0,0,0,0,0,0,0,0],"id":33,"left_children":[1,3,5,7,-1,9,11,13,15,-1,-1,17,19,-1,-1,-1,-1,-1,-1,-1,-1],"loss_changes":[1.3259934E1,2.0408194E1,9.630544E0,5.0730186E0,0E0,2.2913723E0,5.8377542E0,2.8362966E-1,3.3047276E0,0E0,0E0,1.679204E0,1.0832625E1,0E0,0E0,0E0,0E0,0E0,0E0,0E0,0E0],"parents":[2147483647,0,0,1,1,2,2,3,3,5,5,6,6,7,7,8,8,11,11,12,12],"right_children":[2,4,6,8,-1,10,12,14,16,-1,-1,18,20,-1,-1,-1,-1,-1,-1,-1,-1],"split_conditions":[2E0,1E0,1E0,1E0,-5.953529E-2,1E0,1E0,1E0,1E0,3.306308E-2,8.243664E-2,1E0,1E0,5.390487E-3,-8.431861E-3,6.107488E-2,-2.044711E-2,-1.2126462E-2,-8.466214E-2,-3.0280486E-2,6.531648E-2],"split_indices":[1,4,5,5,0,4,4,2,2,0,0,2,2,0,0,0,0,0,0,0,0],"split_type":[0,0,0,0,0,0,0,0,0,0,0,0,0,0,0,0,0,0,0,0,0],"sum_hessian":[6E1,3.4E1,2.6E1,2E1,1.4E1,1.3E1,1.3E1,1.3E1,7E0,7E0,6E0,3E0,1E1,6E0,7E0,6E0,1E0,2E0,1E0,5E0,5E0],"tree_param":{"num_deleted":"0","num_feature":"6","num_nodes":"21","size_leaf_vector":"1"}},{"base_weights":[-2.0111729E-1,-7.457665E-1,7.140802E-1,-2.0743303E-1,-7.0415586E-2,5.6334216E-2,-1.0001516E-1,2.0691793E-1,-8.9108634E-1,-1.0052648E0,5.0314367E-2,6.3341014E-2,-9.428533E-4,-8.9989774E-2,1.8879095E-2,-8.6232156E-2,-1.0720742E-2],"categories":[],"categories_nodes":[],"categories_segments":[],"categories_sizes":[],"default_left":[0,0,0,0,0,0,0,0,0,0,0,0,0,0,0,0,0],"id":34,"left_children":[1,3,5,7,-1,-1,9,11,13,15,-1,-1,-1,-1,-1,-1,-1],"loss_changes":[3.592331E1,1.5758032E1,9.181961E0,7.549464E0,0E0,0E0,1.1026385E1,4.091979E0,1.2208076E1,3.0437322E0,0E0,0E0,0E0,0E0,0E0,0E0,0E0],"parents":[2147483647,0,0,1,1,2,2,3,3,6,6,7,7,8,8,9,9],"right_children":[2,4,6,8,-1,-1,10,12,14,16,-1,-1,-1,-1,-1,-1,-1],"split_conditions":[2E0,1E0,1E0,1E0,-7.0415586E-2,5.6334216E-2,1E0,1E0,1E0,1E0,5.0314367E-2,6.3341014E-2,-9.428533E-4,-8.9989774E-2,1.8879095E-2,-8.6232156E-2,-1.0720742E-2],"split_indices":[1,2,2,3,0,0,3,1,5,5,0,0,0,0,0,0,0],"split_type":[0,0,0,0,0,0,0,0,0,0,0,0,0,0,0,0,0],"sum_hessian":[7E1,4.4E1,2.6E1,2.5E1,1.9E1,1.7E1,9E0,1.6E1,9E0,5E0,4E0,2E0,1.4E1,5E0,4E0,2E0,3E0],"tree_param":{"num_deleted":"0","num_feature":"6","num_nodes":"17","size_leaf_vector":"1"}},{"base_weights":[5.273247E-1,-1.09722264E-1,6.550007E-2,2.9823747E-1,-6.463538E-1,4.8897E-2,-4.79259E-1,-9.9440336E-2,-7.250752E-2,-4.871199E-2,1.0528483E-2,1.2778123E-2,-3.4791756E-2],"categories":[],"categories_nodes":[],"categories_segments":[],"categories_sizes":[],"default_left":[0,0,0,0,0,0,0,0,0,0,0,0,0],"id":35,"left_children":[1,3,-1,5,7,-1,9,11,-1,-1,-1,-1,-1],"loss_changes":[3.005984E1,7.636184E0,0E0,1.10380125E1,6.449905E0,0E0,3.6196644E0,2.2950473E0,0E0,0E0,0E0,0E0,0E0],"parents":[2147483647,0,0,1,1,3,3,4,4,6,6,7,7],"right_children":[2,4,-1,6,8,-1,10,12,-1,-1,-1,-1,-1],"split_conditions":[1E0,1E0,6.550007E-2,1E0,1E0,4.8897E-2,1E0,1E0,-7.250752E-2,-4.871199E-2,1.0528483E-2,1.2778123E-2,-3.4791756E-2],"split_indices":[0,4,0,3,5,0,5,3,0,0,0,0,0],"split_type":[0,0,0,0,0,0,0,0,0,0,0,0,0],"sum_hessian":[5.9E1,3.3E1,2.6E1,1.9E1,1.4E1,1E1,9E0,9E0,5E0,5E0,4E0,6E0,3E0],"tree_param":{"num_deleted":"0","num_feature":"6","num_nodes":"13","size_leaf_vector":"1"}},{"base_weights":[-2.7944866E-1,1.704368E-2,-6.951061E-1,4.548794E-1,-5.0921136E-1,-7.9195045E-2,-1.458164E-2,-4.8775896E-2,5.824372E-2,4.4037867E-2,-6.2872326E-1,-1.159069E-1,2.7204543E-1,3.196695E-2,-2.2838362E-2,-5.0808337E-2,-1.2728375E-2,1.6301028E-2,-3.0220438E-2,-2.7878275E-2,5.054873E-2],"categories":[],"categories_nodes":[],"categories_segments":[],"categories_sizes":[],"default_left":[0,0,0,0,0,0,0,0,0,0,0,0,0,0,0,0,0,0,0,0,0],"id":36,"left_children":[1,3,5,7,9,-1,11,13,-1,-1,15,17,19,-1,-1,-1,-1,-1,-1,-1,-1],"loss_changes":[8.885073E0,1.01394005E1,1.8122303E1,8.639044E0,3.8761082E0,0E0,5.542981E-1,4.5032024E0,0E0,0E0,2.4956365E0,3.219403E0,3.6288033E0,0E0,0E0,0E0,0E0,0E0,0E0,0E0,0E0],"parents":[2147483647,0,0,1,1,2,2,3,3,4,4,6,6,7,7,10,10,11,11,12,12],"right_children":[2,4,6,8,10,-1,12,14,-1,-1,16,18,20,-1,-1,-1,-1,-1,-1,-1,-1],"split_conditions":[1E0,1E0,1E0,2E0,1E0,-7.9195045E-2,2E0,1E0,5.824372E-2,4.4037867E-2,1E0,1E0,1E0,3.196695E-2,-2.2838362E-2,-5.0808337E-2,-1.2728375E-2,1.6301028E-2,-3.0220438E-2,-2.7878275E-2,5.054873E-2],"split_indices":[2,5,5,1,1,0,1,3,0,0,3,3,3,0,0,0,0,0,0,0,0],"split_type":[0,0,0,0,0,0,0,0,0,0,0,0,0,0,0,0,0,0,0,0,0],"sum_hessian":[7.1E1,4.2E1,2.9E1,2.3E1,1.9E1,1.2E1,1.7E1,1.4E1,9E0,1E0,1.8E1,1.3E1,4E0,5E0,9E0,8E0,1E1,7E0,6E0,2E0,2E0],"tree_param":{"num_deleted":"0","num_feature":"6","num_nodes":"21","size_leaf_vector":"1"}},{"base_weights":[-2.6606634E-1,-5.979381E-1,4.8936415E-1,-9.628097E-1,4.3399945E-2,1.0222791E0,-1.9907022E-1,5.8333E-2,-5.782906E-2,-1.6771948E-1,1.9299589E-1,7.055179E-2,5.4301924E-1,-1.2725316E0,3.6432967E-2,8.585592E-3,-2.7503937E-2,4.4375104E-3,1.325378E-2,5.398935E-2,-2.6630012E-2,-2.4900444E-2,-8.1143856E-2],"categories":[],"categories_nodes":[],"categories_segments":[],"categories_sizes":[],"default_left":[0,0,0,0,0,0,0,0,0,0,0,0,0,0,0,0,0,0,0,0,0,0,0],"id":37,"left_children":[1,3,5,7,9,11,13,-1,-1,15,17,-1,19,21,-1,-1,-1,-1,-1,-1,-1,-1,-1],"loss_changes":[1.7089916E1,1.1040068E1,7.9079213E0,1.3728247E1,6.008562E-1,1.4695673E0,1.088606E1,0E0,0E0,1.1327327E0,5.9128463E-2,0E0,4.6166E0,5.4854584E-1,0E0,0E0,0E0,0E0,0E0,0E0,0E0,0E0,0E0],"parents":[2147483647,0,0,1,1,2,2,3,3,4,4,5,5,6,6,9,9,10,10,12,12,13,13],"right_children":[2,4,6,8,10,12,14,-1,-1,16,18,-1,20,22,-1,-1,-1,-1,-1,-1,-1,-1,-1],"split_conditions":[2E0,1E0,1E0,1E0,1E0,1E0,1E0,5.8333E-2,-5.782906E-2,1E0,1E0,7.055179E-2,1E0,1E0,3.6432967E-2,8.585592E-3,-2.7503937E-2,4.4375104E-3,1.325378E-2,5.398935E-2,-2.6630012E-2,-2.4900444E-2,-8.1143856E-2],"split_indices":[1,0,2,1,4,0,0,0,0,2,2,0,4,4,0,0,0,0,0,0,0,0,0],"split_type":[0,0,0,0,0,0,0,0,0,0,0,0,0,0,0,0,0,0,0,0,0,0,0],"sum_hessian":[6.6E1,4.6E1,2E1,2.9E1,1.7E1,1.1E1,9E0,2E0,2.7E1,7E0,1E1,5E0,6E0,4E0,5E0,4E0,3E0,5E0,5E0,4E0,2E0,2E0,2E0],"tree_param":{"num_deleted":"0","num_feature":"6","num_nodes":"23","size_leaf_vector":"1"}},{"base_weights":[2.1212669E-1,-3.732901E-1,8.851227E-1,-7.5188833E-1,9.4077855E-2,5.9780277E-2,5.591012E-1,-1.7826533E-1,-5.2352477E-2,-1.12509385E-1,7.9361373E-1,4.333973E-2,4.5790017E-2,-1.6207984E-2,2.107488E-2,-2.1665853E-2,9.11305E-3,8.345022E-2,-4.5813948E-2,2.6332173E-2,-1.0276771E-2],"categories":[],"categories_nodes":[],"categories_segments":[],"categories_sizes":[],"default_left":[0,0,0,0,0,0,0,0,0,0,0,0,0,0,0,0,0,0,0,0,0],"id":38,"left_children":[1,3,5,7,9,-1,11,13,-1,15,17,19,-1,-1,-1,-1,-1,-1,-1,-1,-1],"loss_changes":[2.6333296E1,6.4407454E0,2.4694824E0,3.1995726E0,2.546047E0,0E0,3.0878286E0,8.366487E-1,0E0,1.402881E0,7.516569E0,1.070502E0,0E0,0E0,0E0,0E0,0E0,0E0,0E0,0E0,0E0],"parents":[2147483647,0,0,1,1,2,2,3,3,4,4,6,6,7,7,9,9,10,10,11,11],"right_children":[2,4,6,8,10,-1,12,14,-1,16,18,20,-1,-1,-1,-1,-1,-1,-1,-1,-1],"split_conditions":[1E0,1E0,1E0,1E0,1E0,5.9780277E-2,1E0,1E0,-5.2352477E-2,1E0,1E0,1E0,4.5790017E-2,-1.6207984E-2,2.107488E-2,-2.1665853E-2,9.11305E-3,8.345022E-2,-4.5813948E-2,2.6332173E-2,-1.0276771E-2],"split_indices":[0,5,5,4,2,0,2,2,0,4,4,4,0,0,0,0,0,0,0,0,0],"split_type":[0,0,0,0,0,0,0,0,0,0,0,0,0,0,0,0,0,0,0,0,0],"sum_hessian":[6.5E1,3.5E1,3E1,1.9E1,1.6E1,1.4E1,1.6E1,7E0,1.2E1,1.3E1,3E0,7E0,9E0,6E0,1E0,6E0,7E0,2E0,1E0,2E0,5E0],"tree_param":{"num_deleted":"0","num_feature":"6","num_nodes":"21","size_leaf_vector":"1"}},{"base_weights":[-1.8184615E-3,-2.272693E-1,4.7171924E-1,4.3509435E-2,-2.752607E-1,-8.98447E-2,9.3934834E-1,-7.340233E-2,-4.300454E-1,4.911759E-2,-6.792558E-2,-2.0954132E-3,1.1620618E0,3.1714108E-2,-2.6953757E-2,-1.2553252E-2,-3.188067E-2,8.3282046E-2,3.1633273E-2],"categories":[],"categories_nodes":[],"categories_segments":[],"categories_sizes":[],"default_left":[0,0,0,0,0,0,0,0,0,0,0,0,0,0,0,0,0,0,0],"id":39,"left_children":[1,3,5,-1,7,9,11,13,15,-1,-1,-1,17,-1,-1,-1,-1,-1,-1],"loss_changes":[6.619535E0,2.451607E0,5.336469E0,0E0,1.2494621E0,1.4937138E1,2.45263E0,6.603364E0,6.9438076E-1,0E0,0E0,0E0,1.3455429E0,0E0,0E0,0E0,0E0,0E0,0E0],"parents":[2147483647,0,0,1,1,2,2,4,4,5,5,6,6,7,7,8,8,12,12],"right_children":[2,4,6,-1,8,10,12,14,16,-1,-1,-1,18,-1,-1,-1,-1,-1,-1],"split_conditions":[2E0,1E0,1E0,4.3509435E-2,1E0,1E0,1E0,1E0,1E0,4.911759E-2,-6.792558E-2,-2.0954132E-3,1E0,3.1714108E-2,-2.6953757E-2,-1.2553252E-2,-3.188067E-2,8.3282046E-2,3.1633273E-2],"split_indices":[1,1,3,0,3,4,4,5,4,0,0,0,5,0,0,0,0,0,0],"split_type":[0,0,0,0,0,0,0,0,0,0,0,0,0,0,0,0,0,0,0],"sum_hessian":[6E1,4.1E1,1.9E1,1E0,4E1,9E0,1E1,1.8E1,2.2E1,5E0,4E0,2E0,8E0,7E0,1.1E1,1.3E1,9E0,3E0,5E0],"tree_param":{"num_deleted":"0","num_feature":"6","num_nodes":"19","size_leaf_vector":"1"}},{"base_weights":[2.2412019E-2,3.9303502E-1,-4.1627616E-1,6.241989E-1,1.6517079E-1,-1.124234E0,6.2482613E-1,4.7935013E-2,1.4600855E-1,-6.1864052E-2,5.418354E-1,-1.5281014E0,-1.5589415E-1,1.4918867E-1,1.4511359E0,3.7996393E-2,-4.0568627E-2,3.9165314E-2,-8.69916E-2,-7.436414E-2,1.0283815E-1,-1.0588791E-1,-4.826039E-2,-3.6423843E-2,8.1990056E-2,1.1756843E-2,-1.9258916E-3,8.244016E-2,1.6511679E-2],"categories":[],"categories_nodes":[],"categories_segments":[],"categories_sizes":[],"default_left":[0,0,0,0,0,0,0,0,0,0,0,0,0,0,0,0,0,0,0,0,0,0,0,0,0,0,0,0,0],"id":40,"left_children":[1,3,5,7,9,11,13,-1,15,17,19,21,23,25,27,-1,-1,-1,-1,-1,-1,-1,-1,-1,-1,-1,-1,-1,-1],"loss_changes":[1.1707354E1,1.9511862E0,2.5025314E1,2.8991728E0,1.8293561E0,7.583395E0,5.2858415E0,0E0,5.9063773E0,2.1217184E1,2.7650723E1,2.6027222E0,8.391845E0,1.703873E-1,5.633373E-1,0E0,0E0,0E0,0E0,0E0,0E0,0E0,0E0,0E0,0E0,0E0,0E0,0E0,0E0],"parents":[2147483647,0,0,1,1,2,2,3,3,4,4,5,5,6,6,8,8,9,9,10,10,11,11,12,12,13,13,14,14],"right_children":[2,4,6,8,10,12,14,-1,16,18,20,22,24,26,28,-1,-1,-1,-1,-1,-1,-1,-1,-1,-1,-1,-1,-1,-1],"split_conditions":[1E0,1E0,1E0,1E0,1E0,1E0,1E0,4.7935013E-2,1E0,1E0,1E0,1E0,1E0,1E0,1E0,3.7996393E-2,-4.0568627E-2,3.9165314E-2,-8.69916E-2,-7.436414E-2,1.0283815E-1,-1.0588791E-1,-4.826039E-2,-3.6423843E-2,8.1990056E-2,1.1756843E-2,-1.9258916E-3,8.244016E-2,1.6511679E-2],"split_indices":[3,5,0,0,0,5,2,0,2,2,2,2,2,5,5,0,0,0,0,0,0,0,0,0,0,0,0,0,0],"split_type":[0,0,0,0,0,0,0,0,0,0,0,0,0,0,0,0,0,0,0,0,0,0,0,0,0,0,0,0,0],"sum_hessian":[7E1,3.8E1,3.2E1,1.8E1,2E1,1.9E1,1.3E1,1E1,8E0,1.3E1,7E0,1.3E1,6E0,9E0,4E0,5E0,3E0,9E0,4E0,3E0,4E0,5E0,8E0,5E0,1E0,6E0,3E0,3E0,1E0],"tree_param":{"num_deleted":"0","num_feature":"6","num_nodes":"29","size_leaf_vector":"1"}},{"base_weights":[4.451196E-2,-2.599593E-1,5.6159216E-1,-6.988116E-1,3.4548923E-1,3.8126167E-2,2.8654912E-1,-1.1337948E0,-6.0599685E-2,6.454001E-1,-9.2779584E-2,5.49205E-1,-1.7042365E-2,4.1223314E-2,-6.5965496E-2,2.5091162E-2,-2.6700972E-2,2.0367268E-2,4.486038E-2,-1.15681095E-2,-1.0066407E-3,-3.539827E-2,5.968331E-2,3.730159E-2,-1.3428002E-2],"categories":[],"categories_nodes":[],"categories_segments":[],"categories_sizes":[],"default_left":[0,0,0,0,0,0,0,0,0,0,0,0,0,0,0,0,0,0,0,0,0,0,0,0,0],"id":41,"left_children":[1,3,5,7,9,-1,11,13,15,17,19,21,23,-1,-1,-1,-1,-1,-1,-1,-1,-1,-1,-1,-1],"loss_changes":[1.1481388E1,1.2463746E1,1.2736473E0,7.4268017E0,2.6887121E0,0E0,1.0459809E0,6.900318E0,3.4631286E0,3.538537E-1,8.595024E-2,6.5164576E0,1.5438405E0,0E0,0E0,0E0,0E0,0E0,0E0,0E0,0E0,0E0,0E0,0E0,0E0],"parents":[2147483647,0,0,1,1,2,2,3,3,4,4,6,6,7,7,8,8,9,9,10,10,11,11,12,12],"right_children":[2,4,6,8,10,-1,12,14,16,18,20,22,24,-1,-1,-1,-1,-1,-1,-1,-1,-1,-1,-1,-1],"split_conditions":[2E0,1E0,1E0,1E0,1E0,3.8126167E-2,1E0,1E0,1E0,1E0,1E0,1E0,1E0,4.1223314E-2,-6.5965496E-2,2.5091162E-2,-2.6700972E-2,2.0367268E-2,4.486038E-2,-1.15681095E-2,-1.0066407E-3,-3.539827E-2,5.968331E-2,3.730159E-2,-1.3428002E-2],"split_indices":[1,0,5,5,5,0,0,1,4,4,4,4,4,0,0,0,0,0,0,0,0,0,0,0,0],"split_type":[0,0,0,0,0,0,0,0,0,0,0,0,0,0,0,0,0,0,0,0,0,0,0,0,0],"sum_hessian":[7.1E1,4.5E1,2.6E1,2.6E1,1.9E1,1.4E1,1.2E1,1.5E1,1.1E1,1.1E1,8E0,6E0,6E0,1E0,1.4E1,5E0,6E0,7E0,4E0,2E0,6E0,2E0,4E0,1E0,5E0],"tree_param":{"num_deleted":"0","num_feature":"6","num_nodes":"25","size_leaf_vector":"1"}},{"base_weights":[-3.427435E-1,-6.7829096E-1,9.370808E-2,-2.0326656E-1,-1.3187454E0,1.7982738E-1,7.1145E-3,5.301253E-2,-3.7408966E-1,-8.269924E-2,-2.5042143E-1,-5.7915455E-1,5.6498583E-2,5.42019E-2,-4.4219652E-1,-1.1700815E-2,-2.4007743E-2,-3.9061528E-2,4.682038E-2,-5.138116E-2,-7.427502E-4,-1.3154715E-2,-3.201604E-2],"categories":[],"categories_nodes":[],"categories_segments":[],"categories_sizes":[],"default_left":[0,0,0,0,0,0,0,0,0,0,0,0,0,0,0,0,0,0,0,0,0,0,0],"id":42,"left_children":[1,3,5,7,9,11,13,-1,15,-1,17,19,-1,-1,21,-1,-1,-1,-1,-1,-1,-1,-1],"loss_changes":[9.875725E0,1.129274E1,2.2244194E-1,5.3609004E0,5.3161163E0,1.1471563E1,8.221336E0,0E0,1.9963098E-1,0E0,3.8814485E0,2.2623703E0,0E0,0E0,2.57349E-1,0E0,0E0,0E0,0E0,0E0,0E0,0E0,0E0],"parents":[2147483647,0,0,1,1,2,2,3,3,4,4,5,5,6,6,8,8,10,10,11,11,14,14],"right_children":[2,4,6,8,10,12,14,-1,16,-1,18,20,-1,-1,22,-1,-1,-1,-1,-1,-1,-1,-1],"split_conditions":[1E0,1E0,1E0,1E0,2E0,1E0,1E0,5.301253E-2,1E0,-8.269924E-2,1E0,2E0,5.6498583E-2,5.42019E-2,2E0,-1.1700815E-2,-2.4007743E-2,-3.9061528E-2,4.682038E-2,-5.138116E-2,-7.427502E-4,-1.3154715E-2,-3.201604E-2],"split_indices":[0,4,5,1,1,4,4,0,5,0,5,1,0,0,1,0,0,0,0,0,0,0,0],"split_type":[0,0,0,0,0,0,0,0,0,0,0,0,0,0,0,0,0,0,0,0,0,0,0],"sum_hessian":[6.6E1,3.7E1,2.9E1,2.2E1,1.5E1,1.4E1,1.5E1,2E0,2E1,1.1E1,4E0,8E0,6E0,4E0,1.1E1,1E1,1E1,3E0,1E0,4E0,4E0,7E0,4E0],"tree_param":{"num_deleted":"0","num_feature":"6","num_nodes":"23","size_leaf_vector":"1"}},{"base_weights":[3.4799557E-2,-1.4261386E-1,2.4542849E-1,1.6945414E-2,-2.7908653E-1,-2.1700497E-1,4.5120683E-2,1.7811723E-2,-4.516952E-1,-6.8479913E-1,1.15114644E-1,2.1399444E-1,-5.499131E-1,-3.6732007E-2,7.454872E-4,3.6343287E-3,-6.0095202E-2,-1.5025437E-2,1.5426851E-2,4.7036942E-2,-2.7777439E-2,-4.753733E-2,6.061816E-3],"categories":[],"categories_nodes":[],"categories_segments":[],"categories_sizes":[],"default_left":[0,0,0,0,0,0,0,0,0,0,0,0,0,0,0,0,0,0,0,0,0,0,0],"id":43,"left_children":[1,3,5,7,9,11,-1,-1,13,15,17,19,21,-1,-1,-1,-1,-1,-1,-1,-1,-1,-1],"loss_changes":[2.5386844E0,8.1042206E-1,9.6139965E0,3.0229928E0,3.2774785E0,2.8438597E0,0E0,0E0,1.0671414E0,4.0043583E0,9.770175E-1,5.555977E0,3.0744758E0,0E0,0E0,0E0,0E0,0E0,0E0,0E0,0E0,0E0,0E0],"parents":[2147483647,0,0,1,1,2,2,3,3,4,4,5,5,8,8,9,9,10,10,11,11,12,12],"right_children":[2,4,6,8,10,12,-1,-1,14,16,18,20,22,-1,-1,-1,-1,-1,-1,-1,-1,-1,-1],"split_conditions":[1E0,1E0,1E0,1E0,1E0,1E0,4.5120683E-2,1.7811723E-2,1E0,1E0,1E0,1E0,1E0,-3.6732007E-2,7.454872E-4,3.6343287E-3,-6.0095202E-2,-1.5025437E-2,1.5426851E-2,4.7036942E-2,-2.7777439E-2,-4.753733E-2,6.061816E-3],"split_indices":[2,5,5,3,3,3,0,0,4,4,4,4,4,0,0,0,0,0,0,0,0,0,0],"split_type":[0,0,0,0,0,0,0,0,0,0,0,0,0,0,0,0,0,0,0,0,0,0,0],"sum_hessian":[6.6E1,3.6E1,3E1,1.7E1,1.9E1,1.8E1,1.2E1,1E1,7E0,9E0,1E1,8E0,1E1,4E0,3E0,4E0,5E0,3E0,7E0,4E0,4E0,6E0,4E0],"tree_param":{"num_deleted":"0","num_feature":"6","num_nodes":"23","size_leaf_vector":"1"}},{"base_weights":[2.914215E-1,-8.710254E-2,8.034746E-1,-4.7467607E-1,5.23925E-1,4.3775073E-1,1.3621364E0,3.8422108E-2,-5.584911E-1,5.715702E-2,-2.3818296E-1,4.0971283E-2,-3.8689903E-3,8.429711E-2,1.8699527E-2,-5.281804E-2,-9.46726E-3,1.0093199E-2,-8.296279E-2],"categories":[],"categories_nodes":[],"categories_segments":[],"categories_sizes":[],"default_left":[0,0,0,0,0,0,0,0,0,0,0,0,0,0,0,0,0,0,0],"id":44,"left_children":[1,3,5,7,9,11,13,-1,15,-1,17,-1,-1,-1,-1,-1,-1,-1,-1],"loss_changes":[1.3250046E1,9.721418E0,5.328884E0,3.0339675E0,7.82282E0,3.799043E0,2.8891144E0,0E0,4.2108603E0,0E0,5.337654E0,0E0,0E0,0E0,0E0,0E0,0E0,0E0,0E0],"parents":[2147483647,0,0,1,1,2,2,3,3,4,4,5,5,6,6,8,8,10,10],"right_children":[2,4,6,8,10,12,14,-1,16,-1,18,-1,-1,-1,-1,-1,-1,-1,-1],"split_conditions":[1E0,2E0,1E0,1E0,1E0,1E0,2E0,3.8422108E-2,1E0,5.715702E-2,1E0,4.0971283E-2,-3.8689903E-3,8.429711E-2,1.8699527E-2,-5.281804E-2,-9.46726E-3,1.0093199E-2,-8.296279E-2],"split_indices":[0,1,2,1,5,5,1,0,5,0,2,0,0,0,0,0,0,0,0],"split_type":[0,0,0,0,0,0,0,0,0,0,0,0,0,0,0,0,0,0,0],"sum_hessian":[6.7E1,3.9E1,2.8E1,2.4E1,1.5E1,1.8E1,1E1,1E0,2.3E1,8E0,7E0,1E1,8E0,7E0,3E0,9E0,1.4E1,6E0,1E0],"tree_param":{"num_deleted":"0","num_feature":"6","num_nodes":"19","size_leaf_vector":"1"}},{"base_weights":[-2.943057E-2,-4.1877964E-1,4.647259E-1,-1.17581256E-1,-3.9196584E-2,2.2431847E-1,3.450894E-2,1.6430238E-2,-2.2587826E-2,4.080361E-2,3.6251852E-1,4.1194793E-2,-2.9691545E-2,-1.8186001E-2,6.8062335E-2],"categories":[],"categories_nodes":[],"categories_segments":[],"categories_sizes":[],"default_left":[0,0,0,0,0,0,0,0,0,0,0,0,0,0,0],"id":45,"left_children":[1,3,5,7,-1,9,-1,-1,-1,11,13,-1,-1,-1,-1],"loss_changes":[1.3085375E1,4.0871863E0,1.4711967E0,3.4287448E0,0E0,3.909961E-1,0E0,0E0,0E0,4.4650736E0,7.022947E0,0E0,0E0,0E0,0E0],"parents":[2147483647,0,0,1,1,2,2,3,3,5,5,9,9,10,10],"right_children":[2,4,6,8,-1,10,-1,-1,-1,12,14,-1,-1,-1,-1],"split_conditions":[1E0,1E0,1E0,1E0,-3.9196584E-2,1E0,3.450894E-2,1.6430238E-2,-2.2587826E-2,1E0,1E0,4.1194793E-2,-2.9691545E-2,-1.8186001E-2,6.8062335E-2],"split_indices":[0,3,3,4,0,4,0,0,0,2,2,0,0,0,0],"split_type":[0,0,0,0,0,0,0,0,0,0,0,0,0,0,0],"sum_hessian":[6.6E1,3.7E1,2.9E1,2.1E1,1.6E1,1.5E1,1.4E1,9E0,1.2E1,7E0,8E0,3E0,4E0,5E0,3E0],"tree_param":{"num_deleted":"0","num_feature":"6","num_nodes":"15","size_leaf_vector":"1"}},{"base_weights":[-1.1139041E-1,-5.282795E-1,6.054364E-1,4.9059615E-2,-6.308471E-1,8.304654E-1,2.639962E-1,-7.712955E-1,-4.2414087E-1,4.884493E-2,2.3620231E-2,3.8415766E-1,-4.2325735E-2,-4.433959E-2,-2.529676E-2,-2.3786258E-3,-3.977117E-2,4.6322767E-2,2.4491271E-3,-2.9339552E-2,3.9776754E-2],"categories":[],"categories_nodes":[],"categories_segments":[],"categories_sizes":[],"default_left":[0,0,0,0,0,0,0,0,0,0,0,0,0,0,0,0,0,0,0,0,0],"id":46,"left_children":[1,3,5,-1,7,9,11,13,15,-1,-1,17,19,-1,-1,-1,-1,-1,-1,-1,-1],"loss_changes":[1.9445427E1,6.9667187E0,1.6247749E0,0E0,8.0509377E-1,2.725563E-1,4.2114878E-1,2.2560024E-1,2.4787984E0,0E0,0E0,1.4087374E0,2.2915573E0,0E0,0E0,0E0,0E0,0E0,0E0,0E0,0E0],"parents":[2147483647,0,0,1,1,2,2,4,4,5,5,6,6,7,7,8,8,11,11,12,12],"right_children":[2,4,6,-1,8,10,12,14,16,-1,-1,18,20,-1,-1,-1,-1,-1,-1,-1,-1],"split_conditions":[2E0,1E0,1E0,4.9059615E-2,1E0,1E0,1E0,1E0,1E0,4.884493E-2,2.3620231E-2,1E0,1E0,-4.433959E-2,-2.529676E-2,-2.3786258E-3,-3.977117E-2,4.6322767E-2,2.4491271E-3,-2.9339552E-2,3.9776754E-2],"split_indices":[1,1,5,0,5,3,2,2,2,0,0,3,3,0,0,0,0,0,0,0,0],"split_type":[0,0,0,0,0,0,0,0,0,0,0,0,0,0,0,0,0,0,0,0,0],"sum_hessian":[6.3E1,4E1,2.3E1,2E0,3.8E1,1.3E1,1E1,2.1E1,1.7E1,8E0,5E0,7E0,3E0,1.3E1,8E0,9E0,8E0,2E0,5E0,2E0,1E0],"tree_param":{"num_deleted":"0","num_feature":"6","num_nodes":"21","size_leaf_vector":"1"}},{"base_weights":[-1.4777243E-1,-4.6545786E-1,2.930473E-1,-9.7322303E-1,6.680509E-2,4.8421755E-1,4.9924154E-2,3.5824325E-2,-1.1069006E0,2.4924329E-2,-2.9246205E-1,2.7908457E-2,3.1996304E-1,-2.8105852E-1,3.737748E-1,-6.9281094E-2,-1.5926046E-2,-2.4735933E-2,-7.738799E-3,9.547544E-3,2.7350903E-2,-2.9062286E-2,1.5646983E-2,4.79565E-2,-2.6096632E-3],"categories":[],"categories_nodes":[],"categories_segments":[],"categories_sizes":[],"default_left":[0,0,0,0,0,0,0,0,0,0,0,0,0,0,0,0,0,0,0,0,0,0,0,0,0],"id":47,"left_children":[1,3,5,7,9,11,13,-1,15,-1,17,-1,19,21,23,-1,-1,-1,-1,-1,-1,-1,-1,-1,-1],"loss_changes":[8.959047E0,1.0064807E1,1.2307296E0,5.0847244E0,3.0924788E0,3.6098957E-3,1.498509E0,0E0,3.513939E0,0E0,2.2975653E-1,0E0,1.0059649E-1,1.4300692E0,1.7954581E0,0E0,0E0,0E0,0E0,0E0,0E0,0E0,0E0,0E0,0E0],"parents":[2147483647,0,0,1,1,2,2,3,3,4,4,5,5,6,6,8,8,10,10,12,12,13,13,14,14],"right_children":[2,4,6,8,10,12,14,-1,16,-1,18,-1,20,22,24,-1,-1,-1,-1,-1,-1,-1,-1,-1,-1],"split_conditions":[2E0,1E0,1E0,1E0,1E0,1E0,1E0,3.5824325E-2,1E0,2.4924329E-2,1E0,2.7908457E-2,1E0,1E0,1E0,-6.9281094E-2,-1.5926046E-2,-2.4735933E-2,-7.738799E-3,9.547544E-3,2.7350903E-2,-2.9062286E-2,1.5646983E-2,4.79565E-2,-2.6096632E-3],"split_indices":[1,5,5,1,4,4,0,0,0,0,0,0,0,4,4,0,0,0,0,0,0,0,0,0,0],"split_type":[0,0,0,0,0,0,0,0,0,0,0,0,0,0,0,0,0,0,0,0,0,0,0,0,0],"sum_hessian":[6.2E1,3.6E1,2.6E1,1.8E1,1.8E1,1.4E1,1.2E1,1E0,1.7E1,8E0,1E1,8E0,6E0,6E0,6E0,1.2E1,5E0,3E0,7E0,5E0,1E0,4E0,2E0,2E0,4E0],"tree_param":{"num_deleted":"0","num_feature":"6","num_nodes":"25","size_leaf_vector":"1"}},{"base_weights":[-1.07113265E-1,-4.5209455E-1,4.4101545E-1,-7.267598E-1,-9.58106E-2,6.254564E-1,1.3264538E-1,3.4928706E-2,-8.233011E-1,4.363762E-2,-8.795611E-1,2.1306952E-2,4.1042227E-2,-9.397495E-3,1.3818118E-2,-5.3972166E-2,-2.3451382E-2,-7.226878E-2,-8.357665E-3],"categories":[],"categories_nodes":[],"categories_segments":[],"categories_sizes":[],"default_left":[0,0,0,0,0,0,0,0,0,0,0,0,0,0,0,0,0,0,0],"id":48,"left_children":[1,3,5,7,9,11,13,-1,15,-1,17,-1,-1,-1,-1,-1,-1,-1,-1],"loss_changes":[1.2679595E1,3.9425802E0,1.395814E0,3.740018E0,1.5190762E1,2.73314E-1,5.587671E-1,0E0,1.4900866E0,0E0,4.192397E0,0E0,0E0,0E0,0E0,0E0,0E0,0E0,0E0],"parents":[2147483647,0,0,1,1,2,2,3,3,4,4,5,5,6,6,8,8,10,10],"right_children":[2,4,6,8,10,12,14,-1,16,-1,18,-1,-1,-1,-1,-1,-1,-1,-1],"split_conditions":[2E0,1E0,1E0,1E0,1E0,1E0,1E0,3.4928706E-2,1E0,4.363762E-2,1E0,2.1306952E-2,4.1042227E-2,-9.397495E-3,1.3818118E-2,-5.3972166E-2,-2.3451382E-2,-7.226878E-2,-8.357665E-3],"split_indices":[1,5,5,1,4,0,4,0,4,0,0,0,0,0,0,0,0,0,0],"split_type":[0,0,0,0,0,0,0,0,0,0,0,0,0,0,0,0,0,0,0],"sum_hessian":[6.5E1,4E1,2.5E1,2.2E1,1.8E1,1.5E1,1E1,1E0,2.1E1,8E0,1E1,9E0,6E0,3E0,7E0,1.1E1,1E1,5E0,5E0],"tree_param":{"num_deleted":"0","num_feature":"6","num_nodes":"19","size_leaf_vector":"1"}},{"base_weights":[2.0754871E-1,2.1505093E-2,4.754819E-1,-2.636013E-1,2.225594E-1,8.020986E-1,-7.2514966E-2,-8.0691636E-1,1.9741087E-1,2.1908294E-2,-1.2310624E-1,6.108367E-2,1.773678E-1,-4.967049E-1,5.35854E-1,-5.5158097E-2,-1.1744017E-2,-8.875161E-3,5.656891E-2,3.8105529E-3,-1.6883288E-2,1.7172782E-2,-1.0696522E-2,-2.4396263E-3,-7.9604484E-2,9.985003E-3,3.4669496E-2],"categories":[],"categories_nodes":[],"categories_segments":[],"categories_sizes":[],"default_left":[0,0,0,0,0,0,0,0,0,0,0,0,0,0,0,0,0,0,0,0,0,0,0,0,0,0,0],"id":49,"left_children":[1,3,5,7,9,11,13,15,17,-1,19,-1,21,23,25,-1,-1,-1,-1,-1,-1,-1,-1,-1,-1,-1,-1],"loss_changes":[3.2796938E0,2.351542E0,4.890757E0,4.417366E0,1.842607E0,4.239376E0,3.104865E0,1.0965939E0,3.7023983E0,0E0,4.5338807E-1,0E0,5.9339464E-1,3.3567727E0,1.2631166E-1,0E0,0E0,0E0,0E0,0E0,0E0,0E0,0E0,0E0,0E0,0E0,0E0],"parents":[2147483647,0,0,1,1,2,2,3,3,4,4,5,5,6,6,7,7,8,8,10,10,12,12,13,13,14,14],"right_children":[2,4,6,8,10,12,14,16,18,-1,20,-1,22,24,26,-1,-1,-1,-1,-1,-1,-1,-1,-1,-1,-1,-1],"split_conditions":[2E0,1E0,1E0,1E0,1E0,1E0,1E0,1E0,1E0,2.1908294E-2,1E0,6.108367E-2,1E0,1E0,1E0,-5.5158097E-2,-1.1744017E-2,-8.875161E-3,5.656891E-2,3.8105529E-3,-1.6883288E-2,1.7172782E-2,-1.0696522E-2,-2.4396263E-3,-7.9604484E-2,9.985003E-3,3.4669496E-2],"split_indices":[1,5,2,2,2,0,0,0,0,0,0,0,5,5,5,0,0,0,0,0,0,0,0,0,0,0,0],"split_type":[0,0,0,0,0,0,0,0,0,0,0,0,0,0,0,0,0,0,0,0,0,0,0,0,0,0,0],"sum_hessian":[6.5E1,3.9E1,2.6E1,1.6E1,2.3E1,1.6E1,1E1,7E0,9E0,1.4E1,9E0,9E0,7E0,6E0,4E0,4E0,3E0,7E0,2E0,5E0,4E0,5E0,2E0,5E0,1E0,2E0,2E0],"tree_param":{"num_deleted":"0","num_feature":"6","num_nodes":"27","size_leaf_vector":"1"}},{"base_weights":[-1.5549366E-1,4.5656525E-2,-2.0469332E-1,-3.5312247E-1,1.777514E-1,-6.819985E-1,9.207251E-2,-1.681031E-1,3.726259E-2,6.0534263E-3,-5.957411E-2,-1.5352753E-2,2.2327276E-2,1.7708277E-2,-3.746997E-2],"categories":[],"categories_nodes":[],"categories_segments":[],"categories_sizes":[],"default_left":[0,0,0,0,0,0,0,0,0,0,0,0,0,0,0],"id":50,"left_children":[1,-1,3,5,7,9,11,13,-1,-1,-1,-1,-1,-1,-1],"loss_changes":[3.5517716E0,0E0,3.5822566E0,6.6514215E0,3.6581852E0,1.078214E1,2.966713E0,3.9085255E0,0E0,0E0,0E0,0E0,0E0,0E0,0E0],"parents":[2147483647,0,0,2,2,3,3,4,4,5,5,6,6,7,7],"right_children":[2,-1,4,6,8,10,12,14,-1,-1,-1,-1,-1,-1,-1],"split_conditions":[1E0,4.5656525E-2,2E0,1E0,1E0,1E0,1E0,1E0,3.726259E-2,6.0534263E-3,-5.957411E-2,-1.5352753E-2,2.2327276E-2,1.7708277E-2,-3.746997E-2],"split_indices":[1,0,1,0,2,3,3,0,0,0,0,0,0,0,0],"split_type":[0,0,0,0,0,0,0,0,0,0,0,0,0,0,0],"sum_hessian":[6.3E1,2E0,6.1E1,4.4E1,1.7E1,2.5E1,1.9E1,1.1E1,6E0,1E1,1.5E1,9E0,1E1,6E0,5E0],"tree_param":{"num_deleted":"0","num_feature":"6","num_nodes":"15","size_leaf_vector":"1"}},{"base_weights":[1.7912701E-1,5.711955E-1,-1.4880764E-1,1.948068E-1,4.569922E-2,-4.569309E-1,2.9494327E-1,5.519271E-1,-3.9421177E-1,-4.1030757E-2,1.3428852E-1,4.7387272E-1,3.4413576E-2,3.712536E-2,8.736477E-3,-5.793907E-2,5.0573748E-2,2.1077331E-2,-1.1863945E-2,9.255472E-3,5.4297525E-2,-6.883943E-3,3.933331E-3],"categories":[],"categories_nodes":[],"categories_segments":[],"categories_sizes":[],"default_left":[0,0,0,0,0,0,0,0,0,0,0,0,0,0,0,0,0,0,0,0,0,0,0],"id":51,"left_children":[1,3,5,7,-1,9,11,13,15,-1,17,19,21,-1,-1,-1,-1,-1,-1,-1,-1,-1,-1],"loss_changes":[9.342242E0,4.079672E0,5.6039677E0,3.793534E0,0E0,5.270612E0,7.761717E-1,6.6101193E-1,8.695296E0,0E0,1.1673815E0,1.5664363E0,7.175565E-2,0E0,0E0,0E0,0E0,0E0,0E0,0E0,0E0,0E0,0E0],"parents":[2147483647,0,0,1,1,2,2,3,3,5,5,6,6,7,7,8,8,10,10,11,11,12,12],"right_children":[2,4,6,8,-1,10,12,14,16,-1,18,20,22,-1,-1,-1,-1,-1,-1,-1,-1,-1,-1],"split_conditions":[1E0,1E0,1E0,1E0,4.569922E-2,1E0,1E0,1E0,1E0,-4.1030757E-2,1E0,1E0,1E0,3.712536E-2,8.736477E-3,-5.793907E-2,5.0573748E-2,2.1077331E-2,-1.1863945E-2,9.255472E-3,5.4297525E-2,-6.883943E-3,3.933331E-3],"split_indices":[3,5,0,0,0,5,5,4,4,0,4,4,4,0,0,0,0,0,0,0,0,0,0],"split_type":[0,0,0,0,0,0,0,0,0,0,0,0,0,0,0,0,0,0,0,0,0,0,0],"sum_hessian":[7.1E1,3.2E1,3.9E1,1.6E1,1.6E1,2.3E1,1.6E1,1E1,6E0,1.4E1,9E0,9E0,7E0,6E0,4E0,4E0,2E0,5E0,4E0,7E0,2E0,1E0,6E0],"tree_param":{"num_deleted":"0","num_feature":"6","num_nodes":"23","size_leaf_vector":"1"}},{"base_weights":[-2.8694486E-2,-2.565952E-1,3.279784E-1,3.0766463E-2,-2.9573345E-1,-1.0379255E-1,6.746408E-1,-1.5047903E-1,-4.1893846E-1,2.8069466E-2,-5.0655717E-1,1.3986707E-1,5.9471674E-2,-2.0967402E-2,4.15923E-3,-1.159306E-2,-3.6662236E-2,7.3276524E-4,-5.1571675E-2,1.439474E-2,-2.2408176E-2],"categories":[],"categories_nodes":[],"categories_segments":[],"categories_sizes":[],"default_left":[0,0,0,0,0,0,0,0,0,0,0,0,0,0,0,0,0,0,0,0,0],"id":52,"left_children":[1,3,5,-1,7,9,11,13,15,-1,17,19,-1,-1,-1,-1,-1,-1,-1,-1,-1],"loss_changes":[5.205176E0,1.512872E0,3.811991E0,0E0,6.170089E-1,3.499317E0,3.6878047E0,1.2285564E0,1.0059805E0,0E0,2.2036922E0,8.253826E-1,0E0,0E0,0E0,0E0,0E0,0E0,0E0,0E0,0E0],"parents":[2147483647,0,0,1,1,2,2,4,4,5,5,6,6,7,7,8,8,10,10,11,11],"right_children":[2,4,6,-1,8,10,12,14,16,-1,18,20,-1,-1,-1,-1,-1,-1,-1,-1,-1],"split_conditions":[2E0,1E0,1E0,3.0766463E-2,1E0,1E0,1E0,1E0,1E0,2.8069466E-2,1E0,1E0,5.9471674E-2,-2.0967402E-2,4.15923E-3,-1.159306E-2,-3.6662236E-2,7.3276524E-4,-5.1571675E-2,1.439474E-2,-2.2408176E-2],"split_indices":[1,1,3,0,3,4,4,4,4,0,2,2,0,0,0,0,0,0,0,0,0],"split_type":[0,0,0,0,0,0,0,0,0,0,0,0,0,0,0,0,0,0,0,0,0],"sum_hessian":[6.2E1,3.8E1,2.4E1,1E0,3.7E1,1.1E1,1.3E1,1.8E1,1.9E1,4E0,7E0,7E0,6E0,8E0,1E1,1.3E1,6E0,4E0,3E0,6E0,1E0],"tree_param":{"num_deleted":"0","num_feature":"6","num_nodes":"21","size_leaf_vector":"1"}},{"base_weights":[7.5276494E-3,2.6476476E-1,-4.043528E-1,1.5234318E-1,3.6956915E-1,-1.6405506E-1,-4.9941245E-2,-1.4186674E-1,3.8051486E-2,5.635944E-1,-7.1276866E-2,3.0615538E-1,-6.1786E-1,1.9636286E-2,-4.0446665E-2,1.713557E-2,3.6775928E-2,-3.7685465E-2,1.7621899E-2,3.1508125E-2,3.8636003E-3,-5.927838E-2,9.348054E-3],"categories":[],"categories_nodes":[],"categories_segments":[],"categories_sizes":[],"default_left":[0,0,0,0,0,0,0,0,0,0,0,0,0,0,0,0,0,0,0,0,0,0,0],"id":53,"left_children":[1,3,5,7,9,11,-1,13,-1,15,17,19,21,-1,-1,-1,-1,-1,-1,-1,-1,-1,-1],"loss_changes":[6.8879185E0,4.149897E-1,3.407395E0,3.8686788E0,1.7508757E0,4.243454E0,0E0,5.66682E0,0E0,2.7958155E-1,2.2897332E0,6.9290435E-1,4.790685E0,0E0,0E0,0E0,0E0,0E0,0E0,0E0,0E0,0E0,0E0],"parents":[2147483647,0,0,1,1,2,2,3,3,4,4,5,5,7,7,9,9,10,10,11,11,12,12],"right_children":[2,4,6,8,10,12,-1,14,-1,16,18,20,22,-1,-1,-1,-1,-1,-1,-1,-1,-1,-1],"split_conditions":[1E0,1E0,1E0,1E0,1E0,1E0,-4.9941245E-2,1E0,3.8051486E-2,1E0,1E0,1E0,1E0,1.9636286E-2,-4.0446665E-2,1.713557E-2,3.6775928E-2,-3.7685465E-2,1.7621899E-2,3.1508125E-2,3.8636003E-3,-5.927838E-2,9.348054E-3],"split_indices":[2,4,0,0,0,4,0,3,0,3,3,3,3,0,0,0,0,0,0,0,0,0,0],"split_type":[0,0,0,0,0,0,0,0,0,0,0,0,0,0,0,0,0,0,0,0,0,0,0],"sum_hessian":[6.3E1,3.9E1,2.4E1,2E1,1.9E1,1.8E1,6E0,1.4E1,6E0,1.3E1,6E0,9E0,9E0,8E0,6E0,7E0,6E0,2E0,4E0,3E0,6E0,5E0,4E0],"tree_param":{"num_deleted":"0","num_feature":"6","num_nodes":"23","size_leaf_vector":"1"}},{"base_weights":[1.1284448E-1,-2.6529306E-1,6.9571847E-1,1.4980251E-2,-5.111564E-1,3.849554E-1,9.601003E-1,1.922002E-2,-2.3338199E-2,-8.4891444E-1,4.659629E-2,-2.7817565E-1,4.9998354E-2,1.1913007E0,6.0888726E-1,-5.1880192E-2,-2.7705539E-2,-5.6282817E-3,6.544467E-3,-2.4308205E-2,1.1526323E-2,7.22055E-2,2.8873205E-2,-7.373309E-3,3.690022E-2],"categories":[],"categories_nodes":[],"categories_segments":[],"categories_sizes":[],"default_left":[0,0,0,0,0,0,0,0,0,0,0,0,0,0,0,0,0,0,0,0,0,0,0,0,0],"id":54,"left_children":[1,3,5,7,9,11,13,-1,-1,15,17,19,-1,21,23,-1,-1,-1,-1,-1,-1,-1,-1,-1,-1],"loss_changes":[1.6274246E1,3.1085594E0,2.0130463E0,4.094677E0,4.5608063E0,6.3956666E0,4.926405E-1,0E0,0E0,2.5944805E-1,1.488961E-1,9.585069E-1,0E0,4.07547E-1,8.9009595E-1,0E0,0E0,0E0,0E0,0E0,0E0,0E0,0E0,0E0,0E0],"parents":[2147483647,0,0,1,1,2,2,3,3,4,4,5,5,6,6,9,9,10,10,11,11,13,13,14,14],"right_children":[2,4,6,8,10,12,14,-1,-1,16,18,20,-1,22,24,-1,-1,-1,-1,-1,-1,-1,-1,-1,-1],"split_conditions":[1E0,1E0,1E0,1E0,1E0,1E0,1E0,1.922002E-2,-2.3338199E-2,1E0,1E0,1E0,4.9998354E-2,1E0,1E0,-5.1880192E-2,-2.7705539E-2,-5.6282817E-3,6.544467E-3,-2.4308205E-2,1.1526323E-2,7.22055E-2,2.8873205E-2,-7.373309E-3,3.690022E-2],"split_indices":[0,3,3,5,5,4,5,0,0,4,4,5,0,4,4,0,0,0,0,0,0,0,0,0,0],"split_type":[0,0,0,0,0,0,0,0,0,0,0,0,0,0,0,0,0,0,0,0,0,0,0,0,0],"sum_hessian":[7.2E1,4.4E1,2.8E1,2.1E1,2.3E1,1.4E1,1.4E1,1.2E1,9E0,1.4E1,9E0,7E0,7E0,7E0,7E0,7E0,7E0,3E0,6E0,5E0,2E0,4E0,3E0,1E0,6E0],"tree_param":{"num_deleted":"0","num_feature":"6","num_nodes":"25","size_leaf_vector":"1"}},{"base_weights":[1.3195187E-1,4.2318755E-1,-2.4720658E-1,5.8978266E-1,2.0229995E-1,7.146707E-2,-4.906785E-1,2.8874692E-1,4.0491745E-2,-3.2534897E-1,6.041891E-1,2.6859036E-1,-4.392079E-1,-9.9386847E-1,1.1121326E-2,3.3423424E-2,-3.7906093E-3,2.1040372E-3,-7.2433926E-2,2.005787E-2,4.042237E-2,3.9424606E-2,-1.0471309E-2,-7.074442E-2,6.2195837E-2,-6.495078E-2,-1.819838E-2,3.4703866E-2,-3.3702947E-2],"categories":[],"categories_nodes":[],"categories_segments":[],"categories_sizes":[],"default_left":[0,0,0,0,0,0,0,0,0,0,0,0,0,0,0,0,0,0,0,0,0,0,0,0,0,0,0,0,0],"id":55,"left_children":[1,3,5,7,9,11,13,15,-1,17,19,21,23,25,27,-1,-1,-1,-1,-1,-1,-1,-1,-1,-1,-1,-1,-1,-1],"loss_changes":[7.0613565E0,1.2054434E0,2.2075338E0,1.0910339E0,3.8015308E0,1.4266242E0,4.0510635E0,1.4349875E0,0E0,3.3629184E0,9.0394735E-2,2.6503472E0,8.328771E0,1.0648994E0,4.679381E0,0E0,0E0,0E0,0E0,0E0,0E0,0E0,0E0,0E0,0E0,0E0,0E0,0E0,0E0],"parents":[2147483647,0,0,1,1,2,2,3,3,4,4,5,5,6,6,7,7,9,9,10,10,11,11,12,12,13,13,14,14],"right_children":[2,4,6,8,10,12,14,16,-1,18,20,22,24,26,28,-1,-1,-1,-1,-1,-1,-1,-1,-1,-1,-1,-1,-1,-1],"split_conditions":[1E0,1E0,1E0,1E0,1E0,1E0,1E0,1E0,4.0491745E-2,1E0,1E0,1E0,1E0,1E0,1E0,3.3423424E-2,-3.7906093E-3,2.1040372E-3,-7.2433926E-2,2.005787E-2,4.042237E-2,3.9424606E-2,-1.0471309E-2,-7.074442E-2,6.2195837E-2,-6.495078E-2,-1.819838E-2,3.4703866E-2,-3.3702947E-2],"split_indices":[2,5,5,0,3,0,0,3,0,0,0,3,3,3,3,0,0,0,0,0,0,0,0,0,0,0,0,0,0],"split_type":[0,0,0,0,0,0,0,0,0,0,0,0,0,0,0,0,0,0,0,0,0,0,0,0,0,0,0,0,0],"sum_hessian":[6.2E1,3.5E1,2.7E1,1.9E1,1.6E1,1.2E1,1.5E1,9E0,1E1,7E0,9E0,9E0,3E0,7E0,8E0,4E0,5E0,6E0,1E0,6E0,3E0,4E0,5E0,2E0,1E0,4E0,3E0,4E0,4E0],"tree_param":{"num_deleted":"0","num_feature":"6","num_nodes":"29","size_leaf_vector":"1"}},{"base_weights":[-9.911179E-2,-3.7515843E-1,2.8505984E-1,4.055066E-2,-4.5893097E-1,-6.5942556E-2,7.878084E-1,-7.173932E-1,-1.6271119E-1,1.6237974E-2,-7.262971E-1,5.685041E-2,5.450742E-1,-4.709181E-2,-8.301126E-3,-9.497664E-3,-5.075458E-3,-4.875679E-2,-2.1586724E-2,1.3636224E-2,4.086652E-2],"categories":[],"categories_nodes":[],"categories_segments":[],"categories_sizes":[],"default_left":[0,0,0,0,0,0,0,0,0,0,0,0,0,0,0,0,0,0,0,0,0],"id":56,"left_children":[1,3,5,-1,7,9,11,13,15,-1,17,-1,19,-1,-1,-1,-1,-1,-1,-1,-1],"loss_changes":[7.3182936E0,4.3469434E0,5.169462E0,0E0,2.792614E0,4.8799057E0,3.9739943E-1,2.3186598E0,1.2396216E-2,0E0,9.209037E-2,0E0,4.4443417E-1,0E0,0E0,0E0,0E0,0E0,0E0,0E0,0E0],"parents":[2147483647,0,0,1,1,2,2,4,4,5,5,6,6,7,7,8,8,10,10,12,12],"right_children":[2,4,6,-1,8,10,12,14,16,-1,18,-1,20,-1,-1,-1,-1,-1,-1,-1,-1],"split_conditions":[1E0,1E0,1E0,4.055066E-2,1E0,1E0,1E0,2E0,2E0,1.6237974E-2,2E0,5.685041E-2,2E0,-4.709181E-2,-8.301126E-3,-9.497664E-3,-5.075458E-3,-4.875679E-2,-2.1586724E-2,1.3636224E-2,4.086652E-2],"split_indices":[0,1,2,0,5,5,5,1,1,0,1,0,1,0,0,0,0,0,0,0,0],"split_type":[0,0,0,0,0,0,0,0,0,0,0,0,0,0,0,0,0,0,0,0,0],"sum_hessian":[6.7E1,3.9E1,2.8E1,2E0,3.7E1,1.7E1,1.1E1,1.9E1,1.8E1,1.1E1,6E0,3E0,8E0,1.3E1,6E0,1.1E1,7E0,2E0,4E0,5E0,3E0],"tree_param":{"num_deleted":"0","num_feature":"6","num_nodes":"21","size_leaf_vector":"1"}},{"base_weights":[-1.8056388E-1,2.9614031E-2,-4.7599754E-1,3.229046E-1,-2.8161564E-1,-7.2227174E-1,-9.689654E-2,5.198307E-2,-4.2614272E-1,-3.439651E-2,-2.113084E-2,-4.759183E-2,-2.3173446E-2,3.855792E-1,-2.8161142E-2,-3.8322832E-2,-3.5761993E-3,-9.915295E-3,1.3328771E-2,8.346884E-3,2.2658277E-2],"categories":[],"categories_nodes":[],"categories_segments":[],"categories_sizes":[],"default_left":[0,0,0,0,0,0,0,0,0,0,0,0,0,0,0,0,0,0,0,0,0],"id":57,"left_children":[1,3,5,7,9,11,13,-1,15,-1,17,-1,-1,19,-1,-1,-1,-1,-1,-1,-1],"loss_changes":[3.7397137E0,3.377041E0,2.2640843E0,1.0643854E1,1.8905617E0,4.5003366E-1,2.6920693E0,0E0,1.1519969E0,0E0,6.6455597E-1,0E0,0E0,1.3012707E-2,0E0,0E0,0E0,0E0,0E0,0E0,0E0],"parents":[2147483647,0,0,1,1,2,2,3,3,4,4,5,5,6,6,8,8,10,10,13,13],"right_children":[2,4,6,8,10,12,14,-1,16,-1,18,-1,-1,20,-1,-1,-1,-1,-1,-1,-1],"split_conditions":[1E0,1E0,1E0,1E0,1E0,1E0,1E0,5.198307E-2,1E0,-3.439651E-2,1E0,-4.759183E-2,-2.3173446E-2,1E0,-2.8161142E-2,-3.8322832E-2,-3.5761993E-3,-9.915295E-3,1.3328771E-2,8.346884E-3,2.2658277E-2],"split_indices":[2,5,3,3,3,5,5,0,4,0,4,0,0,4,0,0,0,0,0,0,0],"split_type":[0,0,0,0,0,0,0,0,0,0,0,0,0,0,0,0,0,0,0,0,0],"sum_hessian":[5.9E1,3.5E1,2.4E1,1.8E1,1.7E1,1.4E1,1E1,9E0,9E0,6E0,1.1E1,6E0,8E0,5E0,5E0,4E0,5E0,7E0,4E0,2E0,3E0],"tree_param":{"num_deleted":"0","num_feature":"6","num_nodes":"21","size_leaf_vector":"1"}},{"base_weights":[2.86648E-1,3.6638033E-2,6.1364114E-1,3.0280724E-1,-3.1551296E-1,3.3971864E-1,8.663312E-1,3.6479655E-1,4.5708418E-2,-9.959785E-2,-2.9997325E-2,3.0571897E-2,-2.6033965E-1,2.0170577E-2,6.3941225E-2,2.7044991E-2,6.7301653E-3,-4.2322683E-3,1.7436935E-2,-1.6378785E-2,9.148797E-3,-5.3846217E-3,-2.5589395E-2],"categories":[],"categories_nodes":[],"categories_segments":[],"categories_sizes":[],"default_left":[0,0,0,0,0,0,0,0,0,0,0,0,0,0,0,0,0,0,0,0,0,0,0],"id":58,"left_children":[1,3,5,7,9,11,13,15,17,19,-1,-1,21,-1,-1,-1,-1,-1,-1,-1,-1,-1,-1],"loss_changes":[6.027132E0,4.126005E0,1.9206505E0,3.8175988E-1,1.1071029E0,2.9309878E0,2.5393276E0,7.3794866E-1,2.6652592E-1,8.329851E-1,0E0,0E0,1.7518157E-1,0E0,0E0,0E0,0E0,0E0,0E0,0E0,0E0,0E0,0E0],"parents":[2147483647,0,0,1,1,2,2,3,3,4,4,5,5,6,6,7,7,8,8,9,9,12,12],"right_children":[2,4,6,8,10,12,14,16,18,20,-1,-1,22,-1,-1,-1,-1,-1,-1,-1,-1,-1,-1],"split_conditions":[1E0,1E0,1E0,1E0,1E0,1E0,1E0,1E0,1E0,1E0,-2.9997325E-2,3.0571897E-2,1E0,2.0170577E-2,6.3941225E-2,2.7044991E-2,6.7301653E-3,-4.2322683E-3,1.7436935E-2,-1.6378785E-2,9.148797E-3,-5.3846217E-3,-2.5589395E-2],"split_indices":[0,3,4,2,2,2,2,4,4,4,0,0,3,0,0,0,0,0,0,0,0,0,0],"split_type":[0,0,0,0,0,0,0,0,0,0,0,0,0,0,0,0,0,0,0,0,0,0,0],"sum_hessian":[7.3E1,4.2E1,3.1E1,2.4E1,1.8E1,1.6E1,1.5E1,1.9E1,5E0,1.1E1,7E0,1.1E1,5E0,8E0,7E0,1E1,9E0,4E0,1E0,6E0,5E0,4E0,1E0],"tree_param":{"num_deleted":"0","num_feature":"6","num_nodes":"23","size_leaf_vector":"1"}},{"base_weights":[9.682113E-3,-1.5962864E-1,2.0598873E-1,-2.5436378E-1,2.7546095E-2,4.8905697E-1,-8.995381E-2,-4.3387778E-2,-5.453914E-1,-5.9626985E-1,8.547097E-1,4.453001E-2,5.2711513E-2,3.667396E-1,-3.3088169E-1,-1.2904252E-2,8.836648E-3,-3.3041574E-2,-1.488925E-2,-1.1741539E-2,-7.815858E-2,5.415578E-2,1.3263262E-2,2.3070104E-2,-3.480643E-2,2.9328475E-2,-1.8310249E-2,-6.334238E-2,8.923071E-3],"categories":[],"categories_nodes":[],"categories_segments":[],"categories_sizes":[],"default_left":[0,0,0,0,0,0,0,0,0,0,0,0,0,0,0,0,0,0,0,0,0,0,0,0,0,0,0,0,0],"id":59,"left_children":[1,3,5,7,9,11,13,15,17,19,21,23,-1,25,27,-1,-1,-1,-1,-1,-1,-1,-1,-1,-1,-1,-1,-1,-1],"loss_changes":[2.226512E0,6.453595E-1,2.6409225E0,1.4499327E0,7.217609E0,3.9728107E0,1.8818302E0,7.54502E-1,8.905125E-2,2.4287274E0,5.2048254E-1,3.408794E0,0E0,1.1815436E0,5.470089E0,0E0,0E0,0E0,0E0,0E0,0E0,0E0,0E0,0E0,0E0,0E0,0E0,0E0,0E0],"parents":[2147483647,0,0,1,1,2,2,3,3,4,4,5,5,6,6,7,7,8,8,9,9,10,10,11,11,13,13,14,14],"right_children":[2,4,6,8,10,12,14,16,18,20,22,24,-1,26,28,-1,-1,-1,-1,-1,-1,-1,-1,-1,-1,-1,-1,-1,-1],"split_conditions":[1E0,1E0,1E0,1E0,1E0,1E0,1E0,1E0,1E0,1E0,1E0,1E0,5.2711513E-2,1E0,1E0,-1.2904252E-2,8.836648E-3,-3.3041574E-2,-1.488925E-2,-1.1741539E-2,-7.815858E-2,5.415578E-2,1.3263262E-2,2.3070104E-2,-3.480643E-2,2.9328475E-2,-1.8310249E-2,-6.334238E-2,8.923071E-3],"split_indices":[0,2,5,4,4,4,4,5,5,5,5,2,0,2,2,0,0,0,0,0,0,0,0,0,0,0,0,0,0],"split_type":[0,0,0,0,0,0,0,0,0,0,0,0,0,0,0,0,0,0,0,0,0,0,0,0,0,0,0,0,0],"sum_hessian":[6.5E1,3.5E1,3E1,2.3E1,1.2E1,1.5E1,1.5E1,1.4E1,9E0,7E0,5E0,9E0,6E0,5E0,1E1,7E0,7E0,5E0,4E0,6E0,1E0,3E0,2E0,6E0,3E0,4E0,1E0,3E0,7E0],"tree_param":{"num_deleted":"0","num_feature":"6","num_nodes":"29","size_leaf_vector":"1"}},{"base_weights":[-4.644947E-2,-4.7515723E-1,3.962335E-1,-7.6899135E-1,8.125368E-2,2.563874E-1,3.3266548E-2,2.8986359E-2,-8.5664797E-1,7.480241E-1,-1.1351838E0,5.0577587E-1,-8.4324054E-2,-6.1953973E-2,-1.8078644E-2,4.8028957E-2,1.9293213E-2,-7.91146E-2,-1.5484055E-2,3.3956494E-2,8.072452E-3,-2.6397115E-2,1.22296205E-2],"categories":[],"categories_nodes":[],"categories_segments":[],"categories_sizes":[],"default_left":[0,0,0,0,0,0,0,0,0,0,0,0,0,0,0,0,0,0,0,0,0,0,0],"id":60,"left_children":[1,3,5,7,9,11,-1,-1,13,15,17,19,21,-1,-1,-1,-1,-1,-1,-1,-1,-1,-1],"loss_changes":[1.3093423E1,5.784721E0,1.108913E0,3.2157764E0,1.1393244E1,2.0819175E0,0E0,0E0,3.7172928E0,3.2215738E-1,1.3554387E0,7.2602105E-1,1.7341774E0,0E0,0E0,0E0,0E0,0E0,0E0,0E0,0E0,0E0,0E0],"parents":[2147483647,0,0,1,1,2,2,3,3,4,4,5,5,8,8,9,9,10,10,11,11,12,12],"right_children":[2,4,6,8,10,12,-1,-1,14,16,18,20,22,-1,-1,-1,-1,-1,-1,-1,-1,-1,-1],"split_conditions":[1E0,2E0,2E0,1E0,1E0,1E0,3.3266548E-2,2.8986359E-2,1E0,1E0,1E0,1E0,1E0,-6.1953973E-2,-1.8078644E-2,4.8028957E-2,1.9293213E-2,-7.91146E-2,-1.5484055E-2,3.3956494E-2,8.072452E-3,-2.6397115E-2,1.22296205E-2],"split_indices":[0,1,1,1,2,5,0,0,2,5,5,2,2,0,0,0,0,0,0,0,0,0,0],"split_type":[0,0,0,0,0,0,0,0,0,0,0,0,0,0,0,0,0,0,0,0,0,0,0],"sum_hessian":[6.7E1,3.4E1,3.3E1,2.2E1,1.2E1,2.3E1,1E1,1E0,2.1E1,8E0,4E0,1.3E1,1E1,1.1E1,1E1,4E0,4E0,2E0,2E0,8E0,5E0,4E0,6E0],"tree_param":{"num_deleted":"0","num_feature":"6","num_nodes":"23","size_leaf_vector":"1"}},{"base_weights":[-9.417733E-2,1.9252527E-1,-5.680909E-1,4.2639947E-1,1.884248E-2,-3.0035034E-1,-8.5720706E-1,3.0940974E-2,6.311103E-2,-2.4415687E-1,3.5185596E-1,-4.8597208E-1,2.8140703E-2,-1.2327316E0,2.7755102E-2,2.5079077E-2,-3.443551E-2,-3.0295273E-2,1.6957944E-2,3.8329173E-2,-6.075708E-3,-4.8683286E-3,-4.736937E-2,-1.1162463E-2,3.212726E-2,-4.153559E-2,-8.799335E-2],"categories":[],"categories_nodes":[],"categories_segments":[],"categories_sizes":[],"default_left":[0,0,0,0,0,0,0,0,0,0,0,0,0,0,0,0,0,0,0,0,0,0,0,0,0,0,0],"id":61,"left_children":[1,3,5,7,9,11,13,-1,15,17,19,21,23,25,-1,-1,-1,-1,-1,-1,-1,-1,-1,-1,-1,-1,-1],"loss_changes":[8.669324E0,1.6167626E0,1.6003327E0,1.149313E0,2.187884E0,8.6732674E-1,6.518214E0,0E0,2.6530046E0,3.1596894E0,2.2526665E0,1.5215328E0,1.0701784E0,4.4532776E-1,0E0,0E0,0E0,0E0,0E0,0E0,0E0,0E0,0E0,0E0,0E0,0E0,0E0],"parents":[2147483647,0,0,1,1,2,2,3,3,4,4,5,5,6,6,8,8,9,9,10,10,11,11,12,12,13,13],"right_children":[2,4,6,8,10,12,14,-1,16,18,20,22,24,26,-1,-1,-1,-1,-1,-1,-1,-1,-1,-1,-1,-1,-1],"split_conditions":[1E0,1E0,1E0,2E0,1E0,1E0,2E0,3.0940974E-2,1E0,2E0,2E0,2E0,2E0,1E0,2.7755102E-2,2.5079077E-2,-3.443551E-2,-3.0295273E-2,1.6957944E-2,3.8329173E-2,-6.075708E-3,-4.8683286E-3,-4.736937E-2,-1.1162463E-2,3.212726E-2,-4.153559E-2,-8.799335E-2],"split_indices":[2,3,3,1,5,5,1,0,5,1,1,1,1,5,0,0,0,0,0,0,0,0,0,0,0,0,0],"split_type":[0,0,0,0,0,0,0,0,0,0,0,0,0,0,0,0,0,0,0,0,0,0,0,0,0,0,0],"sum_hessian":[6.2E1,3.9E1,2.3E1,1.6E1,2.3E1,1.3E1,1E1,1E1,6E0,1.3E1,1E1,8E0,5E0,8E0,2E0,4E0,2E0,8E0,5E0,5E0,5E0,5E0,3E0,4E0,1E0,6E0,2E0],"tree_param":{"num_deleted":"0","num_feature":"6","num_nodes":"27","size_leaf_vector":"1"}},{"base_weights":[1.5077797E-2,-2.7593213E-1,5.5848426E-1,-4.7913003E-1,-6.019186E-2,2.0326602E-1,4.335811E-2,-7.789452E-1,1.4291468E-1,1.5300508E-1,-1.4364918E-2,5.0202906E-2,4.075138E-1,-9.712163E-2,-1.6310198E-2,3.1266708E-2,-1.3580191E-2,-4.355989E-3,1.4197874E-2,1.9036524E-2,-6.171401E-3,-5.391729E-3,6.1722685E-2],"categories":[],"categories_nodes":[],"categories_segments":[],"categories_sizes":[],"default_left":[0,0,0,0,0,0,0,0,0,0,0,0,0,0,0,0,0,0,0,0,0,0,0],"id":62,"left_children":[1,3,5,7,9,11,-1,13,15,17,-1,19,21,-1,-1,-1,-1,-1,-1,-1,-1,-1,-1],"loss_changes":[1.0432988E1,1.8561931E0,2.3456392E0,4.214288E0,1.1091632E0,3.5469526E-1,0E0,7.2677526E0,1.7696176E0,4.020774E-1,0E0,5.0611126E-1,2.2639272E0,0E0,0E0,0E0,0E0,0E0,0E0,0E0,0E0,0E0,0E0],"parents":[2147483647,0,0,1,1,2,2,3,3,4,4,5,5,7,7,8,8,9,9,11,11,12,12],"right_children":[2,4,6,8,10,12,-1,14,16,18,-1,20,22,-1,-1,-1,-1,-1,-1,-1,-1,-1,-1],"split_conditions":[2E0,1E0,1E0,1E0,1E0,1E0,4.335811E-2,1E0,1E0,1E0,-1.4364918E-2,1E0,1E0,-9.712163E-2,-1.6310198E-2,3.1266708E-2,-1.3580191E-2,-4.355989E-3,1.4197874E-2,1.9036524E-2,-6.171401E-3,-5.391729E-3,6.1722685E-2],"split_indices":[1,5,5,4,4,3,0,3,3,3,0,4,4,0,0,0,0,0,0,0,0,0,0],"split_type":[0,0,0,0,0,0,0,0,0,0,0,0,0,0,0,0,0,0,0,0,0,0,0],"sum_hessian":[6.4E1,4.2E1,2.2E1,2.1E1,2.1E1,1.1E1,1.1E1,1.4E1,7E0,1.1E1,1E1,7E0,4E0,3E0,1.1E1,3E0,4E0,4E0,7E0,2E0,5E0,3E0,1E0],"tree_param":{"num_deleted":"0","num_feature":"6","num_nodes":"23","size_leaf_vector":"1"}},{"base_weights":[9.299621E-2,-7.1005195E-2,4.2408618E-1,2.0608354E-1,-3.9524618E-1,-3.797685E-1,8.7812656E-1,-1.5113306E-1,7.927434E-1,-1.7584263E-1,-3.463122E-2,-1.2938555E-1,-3.302004E-2,5.970839E-1,6.000883E-2,1.5825069E-2,-3.0098746E-2,1.2491075E-2,6.4285055E-2,9.7097753E-4,-1.8693952E-2,-1.2159443E-2,-5.8433414E-4,4.2835046E-2,1.4061125E-2],"categories":[],"categories_nodes":[],"categories_segments":[],"categories_sizes":[],"default_left":[0,0,0,0,0,0,0,0,0,0,0,0,0,0,0,0,0,0,0,0,0,0,0,0,0],"id":63,"left_children":[1,3,5,7,9,11,13,15,17,19,-1,21,-1,23,-1,-1,-1,-1,-1,-1,-1,-1,-1,-1,-1],"loss_changes":[3.776759E0,4.304099E0,8.728081E0,5.5684905E0,1.3136153E0,5.469434E-1,6.4104176E-1,3.7746215E0,2.3551788E0,5.486268E-1,0E0,7.7525064E-2,0E0,5.7910633E-1,0E0,0E0,0E0,0E0,0E0,0E0,0E0,0E0,0E0,0E0,0E0],"parents":[2147483647,0,0,1,1,2,2,3,3,4,4,5,5,6,6,7,7,8,8,9,9,11,11,13,13],"right_children":[2,4,6,8,10,12,14,16,18,20,-1,22,-1,24,-1,-1,-1,-1,-1,-1,-1,-1,-1,-1,-1],"split_conditions":[2E0,1E0,1E0,1E0,1E0,1E0,1E0,1E0,1E0,1E0,-3.463122E-2,1E0,-3.302004E-2,1E0,6.000883E-2,1.5825069E-2,-3.0098746E-2,1.2491075E-2,6.4285055E-2,9.7097753E-4,-1.8693952E-2,-1.2159443E-2,-5.8433414E-4,4.2835046E-2,1.4061125E-2],"split_indices":[1,4,4,2,2,3,2,3,3,3,0,2,0,3,0,0,0,0,0,0,0,0,0,0,0],"split_type":[0,0,0,0,0,0,0,0,0,0,0,0,0,0,0,0,0,0,0,0,0,0,0,0,0],"sum_hessian":[6.8E1,4.6E1,2.2E1,2.5E1,2.1E1,8E0,1.4E1,1.6E1,9E0,1.3E1,8E0,5E0,3E0,9E0,5E0,8E0,8E0,5E0,4E0,7E0,6E0,2E0,3E0,4E0,5E0],"tree_param":{"num_deleted":"0","num_feature":"6","num_nodes":"25","size_leaf_vector":"1"}},{"base_weights":[7.939129E-2,1.8569884E-1,-5.164855E-2,-3.6917392E-2,4.8498163E-1,2.4809842E-1,-5.64698E-1,-2.1930017E-1,1.4343358E-2,6.418448E-1,2.144313E-3,5.8550674E-1,4.7332544E-2,-1.3312657E-2,-1.021967E0,-1.3918826E-2,-6.022787E-3,2.0788947E-2,4.667577E-2,1.7941551E-2,3.8406532E-2,7.2859647E-3,-4.586927E-3,3.62422E-2,-2.8180098E-2,-6.333333E-2,5.038285E-3],"categories":[],"categories_nodes":[],"categories_segments":[],"categories_sizes":[],"default_left":[0,0,0,0,0,0,0,0,0,0,0,0,0,0,0,0,0,0,0,0,0,0,0,0,0,0,0],"id":64,"left_children":[1,3,5,7,9,11,13,15,-1,17,-1,19,21,23,25,-1,-1,-1,-1,-1,-1,-1,-1,-1,-1,-1,-1],"loss_changes":[8.8721395E-1,2.3497863E0,4.5998664E0,1.3030173E0,1.0127015E0,1.2593478E0,2.75984E0,4.8219085E-2,0E0,3.3716822E-1,0E0,1.4145613E-2,1.9124384E-1,2.8457217E0,1.776031E0,0E0,0E0,0E0,0E0,0E0,0E0,0E0,0E0,0E0,0E0,0E0,0E0],"parents":[2147483647,0,0,1,1,2,2,3,3,4,4,5,5,6,6,7,7,9,9,11,11,12,12,13,13,14,14],"right_children":[2,4,6,8,10,12,14,16,-1,18,-1,20,22,24,26,-1,-1,-1,-1,-1,-1,-1,-1,-1,-1,-1,-1],"split_conditions":[1E0,1E0,2E0,2E0,1E0,1E0,1E0,1E0,1.4343358E-2,2E0,2.144313E-3,1E0,1E0,1E0,1E0,-1.3918826E-2,-6.022787E-3,2.0788947E-2,4.667577E-2,1.7941551E-2,3.8406532E-2,7.2859647E-3,-4.586927E-3,3.62422E-2,-2.8180098E-2,-6.333333E-2,5.038285E-3],"split_indices":[4,5,1,1,2,5,5,2,0,1,0,2,2,2,2,0,0,0,0,0,0,0,0,0,0,0,0],"split_type":[0,0,0,0,0,0,0,0,0,0,0,0,0,0,0,0,0,0,0,0,0,0,0,0,0,0,0],"sum_hessian":[6.2E1,3.4E1,2.8E1,2E1,1.4E1,1.8E1,1E1,1.3E1,7E0,1E1,4E0,6E0,1.2E1,5E0,5E0,7E0,6E0,7E0,3E0,4E0,2E0,7E0,5E0,2E0,3E0,4E0,1E0],"tree_param":{"num_deleted":"0","num_feature":"6","num_nodes":"27","size_leaf_vector":"1"}},{"base_weights":[-1.7149076E-1,-2.7752116E-1,4.8365116E-2,1.17273696E-1,-7.5713867E-1,-3.911767E-1,6.1493295E-1,-8.6872816E-2,4.3218073E-1,-9.3851525E-1,-4.8191065E-1,2.3086262E-1,-5.7768315E-2,-5.1337862E-3,5.552257E-2,1.9098839E-2,-3.0173475E-2,5.177188E-3,4.4962514E-2,-7.877116E-2,-1.747537E-2,2.3682898E-2,-4.795527E-2,3.046362E-2,-1.49932625E-2],"categories":[],"categories_nodes":[],"categories_segments":[],"categories_sizes":[],"default_left":[0,0,0,0,0,0,0,0,0,0,0,0,0,0,0,0,0,0,0,0,0,0,0,0,0],"id":65,"left_children":[1,3,5,7,9,11,13,15,17,19,21,23,-1,-1,-1,-1,-1,-1,-1,-1,-1,-1,-1,-1,-1],"loss_changes":[1.5286639E0,8.420217E0,5.719213E0,1.6447241E0,5.461168E-1,6.446359E0,3.6698995E0,4.1058097E0,1.4418514E0,3.5759602E0,5.0142117E0,1.7893605E0,0E0,0E0,0E0,0E0,0E0,0E0,0E0,0E0,0E0,0E0,0E0,0E0,0E0],"parents":[2147483647,0,0,1,1,2,2,3,3,4,4,5,5,6,6,7,7,8,8,9,9,10,10,11,11],"right_children":[2,4,6,8,10,12,14,16,18,20,22,24,-1,-1,-1,-1,-1,-1,-1,-1,-1,-1,-1,-1,-1],"split_conditions":[2E0,1E0,1E0,1E0,1E0,1E0,1E0,1E0,1E0,1E0,1E0,1E0,-5.7768315E-2,-5.1337862E-3,5.552257E-2,1.9098839E-2,-3.0173475E-2,5.177188E-3,4.4962514E-2,-7.877116E-2,-1.747537E-2,2.3682898E-2,-4.795527E-2,3.046362E-2,-1.49932625E-2],"split_indices":[1,3,3,2,4,4,4,4,4,2,2,2,0,0,0,0,0,0,0,0,0,0,0,0,0],"split_type":[0,0,0,0,0,0,0,0,0,0,0,0,0,0,0,0,0,0,0,0,0,0,0,0,0],"sum_hessian":[6.4E1,4.3E1,2.1E1,2.4E1,1.9E1,1.2E1,9E0,1.5E1,9E0,1E1,9E0,7E0,5E0,4E0,5E0,8E0,7E0,6E0,3E0,4E0,6E0,3E0,6E0,4E0,3E0],"tree_param":{"num_deleted":"0","num_feature":"6","num_nodes":"25","size_leaf_vector":"1"}},{"base_weights":[-1.6110092E-1,-2.786186E-1,-5.6096487E-5,-1.2844016E-1,-4.1413292E-1,-2.545094E-1,2.066907E-1,2.7332524E-2,-2.4103524E-2,-4.382507E-2,8.9648865E-2,-2.3584481E-2,1.8731694E-1,-7.23396E-2,3.8134283E-1,7.4717137E-3,-4.9830913E-3,-7.2102346E-3,2.281998E-2,-3.1490624E-2,2.5160909E-2,5.882297E-2,-1.7240573E-2],"categories":[],"categories_nodes":[],"categories_segments":[],"categories_sizes":[],"default_left":[0,0,0,0,0,0,0,0,0,0,0,0,0,0,0,0,0,0,0,0,0,0,0],"id":66,"left_children":[1,3,5,7,9,11,13,-1,-1,-1,15,-1,17,19,21,-1,-1,-1,-1,-1,-1,-1,-1],"loss_changes":[1.2112236E0,6.998079E-1,1.5256119E0,4.799442E0,4.504301E0,1.3357825E0,8.0731803E-1,0E0,0E0,0E0,1.2807305E-1,0E0,5.1184857E-1,2.5629382E0,6.179429E0,0E0,0E0,0E0,0E0,0E0,0E0,0E0,0E0],"parents":[2147483647,0,0,1,1,2,2,3,3,4,4,5,5,6,6,10,10,12,12,13,13,14,14],"right_children":[2,4,6,8,10,12,14,-1,-1,-1,16,-1,18,20,22,-1,-1,-1,-1,-1,-1,-1,-1],"split_conditions":[1E0,1E0,1E0,1E0,1E0,1E0,1E0,2.7332524E-2,-2.4103524E-2,-4.382507E-2,1E0,-2.3584481E-2,1E0,1E0,1E0,7.4717137E-3,-4.9830913E-3,-7.2102346E-3,2.281998E-2,-3.1490624E-2,2.5160909E-2,5.882297E-2,-1.7240573E-2],"split_indices":[2,5,0,3,3,3,5,0,0,0,0,0,5,3,3,0,0,0,0,0,0,0,0],"split_type":[0,0,0,0,0,0,0,0,0,0,0,0,0,0,0,0,0,0,0,0,0,0,0],"sum_hessian":[6.3E1,3.6E1,2.7E1,1.8E1,1.8E1,1.2E1,1.5E1,6E0,1.2E1,9E0,9E0,8E0,4E0,6E0,9E0,7E0,2E0,2E0,2E0,3E0,3E0,4E0,5E0],"tree_param":{"num_deleted":"0","num_feature":"6","num_nodes":"23","size_leaf_vector":"1"}},{"base_weights":[9.316061E-2,-4.5295805E-2,3.191174E-1,3.676211E-2,-9.521577E-2,7.706852E-2,2.699459E-2,-3.821733E-1,1.02905974E-1,2.7379423E-1,-2.636524E-1,-2.4146399E-2,-7.023062E-3,1.514225E-2,-7.5544342E-3,4.6504237E-2,-7.0171184E-3,-3.6109965E-2,2.1781381E-2],"categories":[],"categories_nodes":[],"categories_segments":[],"categories_sizes":[],"default_left":[0,0,0,0,0,0,0,0,0,0,0,0,0,0,0,0,0,0,0],"id":67,"left_children":[1,3,5,-1,7,9,-1,11,13,15,17,-1,-1,-1,-1,-1,-1,-1,-1],"loss_changes":[2.3921275E0,1.940299E0,1.5080988E0,0E0,2.654544E0,1.0776149E0,0E0,3.9488626E-1,1.467693E0,2.8484697E0,2.238526E0,0E0,0E0,0E0,0E0,0E0,0E0,0E0,0E0],"parents":[2147483647,0,0,1,1,2,2,4,4,5,5,7,7,8,8,9,9,10,10],"right_children":[2,4,6,-1,8,10,-1,12,14,16,18,-1,-1,-1,-1,-1,-1,-1,-1],"split_conditions":[1E0,1E0,1E0,3.676211E-2,1E0,2E0,2.699459E-2,2E0,1E0,1E0,1E0,-2.4146399E-2,-7.023062E-3,1.514225E-2,-7.5544342E-3,4.6504237E-2,-7.0171184E-3,-3.6109965E-2,2.1781381E-2],"split_indices":[2,1,5,0,3,1,0,1,5,3,3,0,0,0,0,0,0,0,0],"split_type":[0,0,0,0,0,0,0,0,0,0,0,0,0,0,0,0,0,0,0],"sum_hessian":[7.5E1,4.7E1,2.8E1,2E0,4.5E1,1.4E1,1.4E1,1.8E1,2.7E1,9E0,5E0,1.2E1,6E0,1.5E1,1.2E1,3E0,6E0,3E0,2E0],"tree_param":{"num_deleted":"0","num_feature":"6","num_nodes":"19","size_leaf_vector":"1"}},{"base_weights":[-3.7581313E-2,-3.4917843E-1,3.41251E-1,-1.2656597E-2,-9.092044E-1,3.896619E-2,-1.1689539E-1,-1.6762806E-1,1.8211246E-1,-4.5758638E-1,-5.1591523E-2,2.4398308E-2,-4.0958488E-1,-5.2886885E-3,-1.1160408E-2,-9.504628E-3,2.3756465E-2,-2.5507553E-2,-6.1831954E-3,-5.0582696E-2,8.24932E-3],"categories":[],"categories_nodes":[],"categories_segments":[],"categories_sizes":[],"default_left":[0,0,0,0,0,0,0,0,0,0,0,0,0,0,0,0,0,0,0,0,0],"id":68,"left_children":[1,3,5,7,9,-1,11,13,15,17,-1,-1,19,-1,-1,-1,-1,-1,-1,-1,-1],"loss_changes":[8.6182575E0,7.5269313E0,6.7142477E0,8.153019E-1,3.5855007E-1,0E0,3.209486E0,2.7958483E-2,1.3990663E0,2.467537E-2,0E0,0E0,4.318088E0,0E0,0E0,0E0,0E0,0E0,0E0,0E0,0E0],"parents":[2147483647,0,0,1,1,2,2,3,3,4,4,6,6,7,7,8,8,9,9,12,12],"right_children":[2,4,6,8,10,-1,12,14,16,18,-1,-1,20,-1,-1,-1,-1,-1,-1,-1,-1],"split_conditions":[1E0,1E0,1E0,1E0,1E0,3.896619E-2,1E0,1E0,1E0,1E0,-5.1591523E-2,2.4398308E-2,1E0,-5.2886885E-3,-1.1160408E-2,-9.504628E-3,2.3756465E-2,-2.5507553E-2,-6.1831954E-3,-5.0582696E-2,8.24932E-3],"split_indices":[0,2,5,4,4,0,4,5,5,5,0,0,2,0,0,0,0,0,0,0,0],"split_type":[0,0,0,0,0,0,0,0,0,0,0,0,0,0,0,0,0,0,0,0,0],"sum_hessian":[7.1E1,3.9E1,3.2E1,2.5E1,1.4E1,1.6E1,1.6E1,1.4E1,1.1E1,4E0,1E1,5E0,1.1E1,8E0,6E0,5E0,6E0,3E0,1E0,5E0,6E0],"tree_param":{"num_deleted":"0","num_feature":"6","num_nodes":"21","size_leaf_vector":"1"}},{"base_weights":[1.2910384E-1,4.5127332E-1,-1.5507221E-1,8.478066E-1,-1.0752252E-1,-4.4999543E-1,4.6938926E-1,5.081894E-1,6.032144E-2,1.2423865E-1,-1.9507041E-2,-3.526885E-2,-1.20709404E-1,6.872323E-1,2.4733329E-1,3.867499E-2,1.3942331E-2,2.1227812E-2,-4.8339767E-3,1.5835704E-2,-2.7044434E-2,7.7815057E-4,6.76857E-2,2.9854013E-2,5.6036133E-3],"categories":[],"categories_nodes":[],"categories_segments":[],"categories_sizes":[],"default_left":[0,0,0,0,0,0,0,0,0,0,0,0,0,0,0,0,0,0,0,0,0,0,0,0,0],"id":69,"left_children":[1,3,5,7,9,11,13,15,-1,17,-1,-1,19,21,23,-1,-1,-1,-1,-1,-1,-1,-1,-1,-1],"loss_changes":[6.661785E0,7.624916E0,7.3937826E0,1.822792E0,1.0309697E0,2.1853805E0,4.5887828E-1,5.144763E-1,0E0,6.381564E-1,0E0,0E0,2.5606587E0,2.664864E0,3.1154087E-1,0E0,0E0,0E0,0E0,0E0,0E0,0E0,0E0,0E0,0E0],"parents":[2147483647,0,0,1,1,2,2,3,3,4,4,5,5,6,6,7,7,9,9,12,12,13,13,14,14],"right_children":[2,4,6,8,10,12,14,16,-1,18,-1,-1,20,22,24,-1,-1,-1,-1,-1,-1,-1,-1,-1,-1],"split_conditions":[1E0,2E0,2E0,1E0,1E0,1E0,1E0,1E0,6.032144E-2,1E0,-1.9507041E-2,-3.526885E-2,1E0,1E0,1E0,3.867499E-2,1.3942331E-2,2.1227812E-2,-4.8339767E-3,1.5835704E-2,-2.7044434E-2,7.7815057E-4,6.76857E-2,2.9854013E-2,5.6036133E-3],"split_indices":[3,1,1,4,5,5,5,5,0,4,0,0,4,4,4,0,0,0,0,0,0,0,0,0,0],"split_type":[0,0,0,0,0,0,0,0,0,0,0,0,0,0,0,0,0,0,0,0,0,0,0,0,0],"sum_hessian":[7.1E1,3.3E1,3.8E1,1.9E1,1.4E1,2.6E1,1.2E1,1.1E1,8E0,8E0,6E0,1.4E1,1.2E1,5E0,7E0,4E0,7E0,3E0,5E0,6E0,6E0,3E0,2E0,1E0,6E0],"tree_param":{"num_deleted":"0","num_feature":"6","num_nodes":"25","size_leaf_vector":"1"}},{"base_weights":[2.05861E-1,3.7296593E-1,2.7454073E-2,3.509458E-2,-4.0943682E-2,-2.4066737E-1,1.9212668E-1,-2.8006527E-1,3.0650768E-1,-5.34951E-1,1.9182198E-1,7.3242188E-3,2.2768478E-1,-1.9629424E-2,-8.787848E-3,3.2307565E-2,2.0709992E-3,4.4302368E-3,-5.9032895E-2,-1.9783098E-2,4.555966E-2,5.032599E-3,1.3387429E-2],"categories":[],"categories_nodes":[],"categories_segments":[],"categories_sizes":[],"default_left":[0,0,0,0,0,0,0,0,0,0,0,0,0,0,0,0,0,0,0,0,0,0,0],"id":70,"left_children":[1,3,5,-1,7,9,11,13,15,17,19,-1,21,-1,-1,-1,-1,-1,-1,-1,-1,-1,-1],"loss_changes":[1.9573972E0,4.657685E0,1.5032632E0,0E0,1.415172E0,1.757184E0,7.2979927E-4,4.8370957E-2,6.0348386E-1,3.3256857E0,2.8962388E0,0E0,2.3944676E-2,0E0,0E0,0E0,0E0,0E0,0E0,0E0,0E0,0E0,0E0],"parents":[2147483647,0,0,1,1,2,2,4,4,5,5,6,6,7,7,8,8,9,9,10,10,12,12],"right_children":[2,4,6,-1,8,10,12,14,16,18,20,-1,22,-1,-1,-1,-1,-1,-1,-1,-1,-1,-1],"split_conditions":[1E0,1E0,1E0,3.509458E-2,1E0,1E0,1E0,1E0,1E0,1E0,1E0,7.3242188E-3,1E0,-1.9629424E-2,-8.787848E-3,3.2307565E-2,2.0709992E-3,4.4302368E-3,-5.9032895E-2,-1.9783098E-2,4.555966E-2,5.032599E-3,1.3387429E-2],"split_indices":[5,4,4,0,2,2,2,3,3,3,3,0,3,0,0,0,0,0,0,0,0,0,0],"split_type":[0,0,0,0,0,0,0,0,0,0,0,0,0,0,0,0,0,0,0,0,0,0,0],"sum_hessian":[6.5E1,3.3E1,3.2E1,1.8E1,1.5E1,1.2E1,2E1,9E0,6E0,7E0,5E0,1.1E1,9E0,3E0,6E0,2E0,4E0,4E0,3E0,3E0,2E0,3E0,6E0],"tree_param":{"num_deleted":"0","num_feature":"6","num_nodes":"23","size_leaf_vector":"1"}},{"base_weights":[1.5899835E-2,1.5407269E-1,-1.8072936E-1,2.2734919E-1,8.353605E-2,-5.4088974E-1,1.9072656E-1,4.017931E-1,-4.718399E-3,-2.0433328E-1,3.8843313E-1,-7.452031E-2,2.6200186E-2,3.6343732E-1,7.918191E-2,9.426805E-3,3.313228E-2,9.067825E-3,-1.1353231E-2,6.250681E-3,-3.7814554E-2,3.7782097E-3,2.6771104E-2,-2.4462795E-2,3.7129935E-2,2.859394E-2,-1.6969252E-2,-6.8244897E-3,1.4082831E-2],"categories":[],"categories_nodes":[],"categories_segments":[],"categories_sizes":[],